304 100
</s> 0.10046 -0.25682 -0.17225 0.17229 -0.089959 0.007829 -0.32559 -0.078942 0.28291 -0.061089 0.037694 0.061485 0.14265 -0.022031 0.017395 0.0075641 -0.069705 -0.19118 -0.02558 0.07312 -0.18947 0.10712 0.28179 0.016296 -0.0094247 0.25831 -0.098779 -0.045731 -0.20852 0.17337 0.24026 0.043361 0.020505 0.00065236 -0.25682 -0.23836 -0.034677 -0.23641 -0.028353 0.13052 0.051556 0.19857 0.12105 -0.058589 -0.026198 0.10987 0.087402 0.10631 0.23392 -0.028197 0.055728 -0.039748 -0.071923 0.076678 0.018976 -0.0097339 -0.094717 -0.046643 0.010297 -0.24252 0.01654 0.068399 0.13878 -0.19049 -0.17725 -0.073404 0.092064 0.24973 0.076785 -0.0063234 -0.028749 0.25093 0.012476 -0.18237 0.07408 -0.18911 0.054894 0.033732 -0.05982 0.19312 0.11056 -0.11648 0.03801 0.077668 -0.04898 0.19717 0.079251 0.14116 -0.18423 -0.090382 -0.083315 -0.0055496 0.015471 -0.13112 0.074328 -0.057683 -0.046054 -0.068847 0.026214 -0.0039953 
không 0.15133 -0.39427 -0.26156 0.26576 -0.13923 0.016597 -0.50159 -0.12197 0.43461 -0.097129 0.050301 0.089032 0.21611 -0.035511 0.02263 0.012436 -0.1053 -0.29524 -0.046822 0.11604 -0.29514 0.16669 0.43093 0.023564 -0.017532 0.40382 -0.15118 -0.070166 -0.32152 0.26177 0.36789 0.067546 0.029836 0.0023767 -0.394 -0.36621 -0.055072 -0.36276 -0.042841 0.19931 0.078194 0.30854 0.19378 -0.094609 -0.032822 0.16674 0.12997 0.16939 0.36047 -0.043007 0.080057 -0.060256 -0.10936 0.12375 0.0323 -0.014277 -0.14783 -0.07806 0.0157 -0.37474 0.031406 0.10303 0.21109 -0.29139 -0.2751 -0.11371 0.14408 0.38129 0.11559 -0.01203 -0.046415 0.38307 0.015454 -0.28219 0.11052 -0.29157 0.080251 0.047132 -0.092274 0.30202 0.16984 -0.1783 0.058284 0.11891 -0.072366 0.30316 0.1209 0.2172 -0.28427 -0.13426 -0.13165 -0.0036904 0.027688 -0.19872 0.11479 -0.097097 -0.067834 -0.10674 0.039672 -0.0059159 
báo 0.062438 -0.14739 -0.096105 0.10115 -0.051946 0.0096625 -0.18734 -0.045015 0.16058 -0.034483 0.020875 0.034325 0.082924 -0.017045 0.007284 0.0056096 -0.0372 -0.11152 -0.021059 0.047149 -0.10656 0.062885 0.15738 0.007638 -0.0055659 0.1469 -0.054296 -0.02556 -0.12239 0.099629 0.13745 0.027187 0.010337 0.0027312 -0.14757 -0.13701 -0.02274 -0.13366 -0.017608 0.077572 0.028924 0.11425 0.071502 -0.033724 -0.010744 0.060097 0.048815 0.05944 0.13585 -0.01624 0.026632 -0.025618 -0.042649 0.045292 0.011928 -0.0058279 -0.052853 -0.024569 0.0084298 -0.13861 0.011817 0.040189 0.080768 -0.1075 -0.10412 -0.044393 0.048664 0.14399 0.043206 -0.0018464 -0.016452 0.14585 0.0050719 -0.10534 0.039148 -0.10731 0.029817 0.019469 -0.03056 0.10981 0.064547 -0.065454 0.021735 0.047264 -0.028431 0.11144 0.047492 0.082647 -0.10744 -0.051734 -0.049074 -0.00035154 0.01135 -0.072909 0.044023 -0.037839 -0.027128 -0.037362 0.01439 -0.0041243 
dự 0.05413 -0.12265 -0.087776 0.087266 -0.04398 0.0070897 -0.16114 -0.039553 0.14235 -0.027156 0.017339 0.031973 0.074134 -0.0089267 0.0081546 0.0050491 -0.031637 -0.096324 -0.0097577 0.040052 -0.094735 0.061332 0.1369 0.011443 -0.0058051 0.13181 -0.045151 -0.017138 -0.1083 0.081282 0.12427 0.020322 0.0094999 0.0021653 -0.12655 -0.11515 -0.013073 -0.11508 -0.01266 0.065453 0.028097 0.098535 0.061143 -0.034487 -0.0080662 0.052252 0.041825 0.057176 0.11633 -0.013117 0.023737 -0.019048 -0.034569 0.034709 0.010027 -0.0047114 -0.045016 -0.022508 0.0013981 -0.12361 0.0048009 0.034856 0.064654 -0.098379 -0.088544 -0.040632 0.047464 0.12064 0.041152 -0.002371 -0.013278 0.12752 0.0047517 -0.086849 0.03484 -0.094851 0.029819 0.014927 -0.03007 0.095742 0.054718 -0.054558 0.024753 0.04187 -0.017151 0.096853 0.041907 0.070286 -0.095949 -0.04014 -0.04025 -0.0045159 0.0082537 -0.062734 0.033299 -0.028787 -0.024553 -0.033466 0.0095587 0.0026117 
có 0.079856 -0.20972 -0.1369 0.14109 -0.066926 0.010346 -0.26681 -0.068403 0.23166 -0.051716 0.02759 0.044702 0.11097 -0.018579 0.012518 0.0062325 -0.057453 -0.15773 -0.027501 0.06423 -0.15582 0.088179 0.22544 0.014062 -0.012776 0.21809 -0.076964 -0.031259 -0.16988 0.14277 0.1997 0.031745 0.014148 0.0033142 -0.20459 -0.19212 -0.030086 -0.18716 -0.025246 0.10591 0.039263 0.15942 0.10348 -0.049633 -0.0177 0.088351 0.068038 0.0903 0.19026 -0.020321 0.041633 -0.03208 -0.05992 0.064207 0.021038 -0.0044588 -0.071268 -0.041257 0.008359 -0.19828 0.018069 0.051229 0.11327 -0.15458 -0.14051 -0.054513 0.075188 0.20666 0.056473 -0.0047906 -0.026801 0.20284 0.0061145 -0.14516 0.058668 -0.16195 0.039277 0.020373 -0.045155 0.15856 0.087615 -0.099525 0.033132 0.066707 -0.036882 0.16129 0.063495 0.11427 -0.15165 -0.068879 -0.067078 -0.0046223 0.016063 -0.11062 0.060757 -0.048031 -0.037346 -0.055034 0.021131 -0.0056322 
tiết 0.07881 -0.20308 -0.13255 0.13808 -0.067587 0.0092349 -0.25422 -0.062292 0.21659 -0.04881 0.027343 0.047617 0.11172 -0.023572 0.010742 0.0075389 -0.050592 -0.14945 -0.021517 0.056148 -0.14886 0.082897 0.21704 0.0091458 -0.010207 0.20548 -0.072407 -0.035433 -0.16381 0.1342 0.18549 0.03277 0.015198 0.0034321 -0.20091 -0.18552 -0.028685 -0.17956 -0.024783 0.10258 0.038978 0.16106 0.096124 -0.047522 -0.021882 0.081234 0.067637 0.083649 0.18138 -0.019245 0.040502 -0.031012 -0.056628 0.062526 0.0154 -0.0073308 -0.07443 -0.038298 0.012399 -0.18664 0.014342 0.053455 0.11245 -0.15178 -0.14112 -0.05776 0.073375 0.1908 0.059314 -0.0053222 -0.022977 0.19703 0.0054974 -0.14217 0.056276 -0.15163 0.039638 0.026008 -0.047075 0.15128 0.087335 -0.091503 0.031433 0.059338 -0.036792 0.15669 0.061583 0.11138 -0.14804 -0.06718 -0.067567 -0.0016271 0.012278 -0.10117 0.061329 -0.04751 -0.038895 -0.054354 0.017288 -0.0036261 
thời 0.10049 -0.25783 -0.17187 0.17163 -0.087568 0.0094072 -0.32942 -0.081907 0.27997 -0.060479 0.032595 0.057738 0.14098 -0.027408 0.011957 0.0065417 -0.071086 -0.1939 -0.026136 0.074306 -0.19136 0.10789 0.28061 0.017426 -0.011304 0.26509 -0.096523 -0.044503 -0.20974 0.17177 0.23923 0.04451 0.016369 0.0019974 -0.25513 -0.23853 -0.037177 -0.23484 -0.029298 0.12871 0.050286 0.20431 0.1261 -0.063522 -0.021532 0.10898 0.085938 0.10617 0.23364 -0.026052 0.054523 -0.038095 -0.0714 0.079485 0.022258 -0.010206 -0.094122 -0.048878 0.010468 -0.2431 0.018844 0.070453 0.1364 -0.18669 -0.1786 -0.075505 0.088943 0.25157 0.076599 -0.0029015 -0.029258 0.24853 0.0091114 -0.18322 0.070771 -0.19352 0.054646 0.029817 -0.059581 0.19735 0.11239 -0.11444 0.040227 0.077287 -0.046422 0.19603 0.078513 0.14248 -0.18802 -0.087182 -0.087512 -0.0032345 0.014107 -0.12794 0.073452 -0.059545 -0.04596 -0.06762 0.025754 -0.0067021 
trời 0.068635 -0.17478 -0.11762 0.11861 -0.06119 0.0044506 -0.22629 -0.055649 0.19407 -0.04444 0.026418 0.039014 0.096693 -0.016529 0.0095774 0.0044853 -0.049218 -0.13063 -0.020597 0.051789 -0.13109 0.076767 0.18948 0.011052 -0.0070377 0.17924 -0.062491 -0.03018 -0.14239 0.11782 0.16104 0.031148 0.0097949 0.0017113 -0.17484 -0.16077 -0.023367 -0.15976 -0.021016 0.089462 0.035103 0.14025 0.086931 -0.039883 -0.014743 0.076356 0.058791 0.076659 0.1598 -0.017138 0.035571 -0.028864 -0.050329 0.055734 0.013831 -0.0075085 -0.064289 -0.0342 0.0084916 -0.16842 0.011735 0.046048 0.092484 -0.13216 -0.12228 -0.053099 0.062136 0.17323 0.051109 -0.0087717 -0.021842 0.17111 0.0063172 -0.12681 0.053364 -0.13021 0.03141 0.0227 -0.041872 0.1369 0.075451 -0.08077 0.029812 0.052486 -0.03375 0.13659 0.056066 0.093788 -0.12959 -0.060948 -0.057374 0.0012888 0.012373 -0.089203 0.050239 -0.043365 -0.032029 -0.047631 0.018617 -0.0037092 
cho 0.080481 -0.19827 -0.13151 0.1366 -0.068548 0.003693 -0.25272 -0.060877 0.2167 -0.050251 0.028552 0.047544 0.10943 -0.016722 0.0099771 0.0056201 -0.050182 -0.14716 -0.023346 0.058063 -0.15039 0.085463 0.21603 0.011392 -0.0086532 0.20218 -0.073695 -0.038414 -0.15687 0.13261 0.18517 0.031782 0.011915 0.0010733 -0.20187 -0.1824 -0.02848 -0.18497 -0.021686 0.10044 0.038496 0.15067 0.097395 -0.050547 -0.018993 0.085848 0.067312 0.082423 0.1839 -0.018757 0.038781 -0.031261 -0.05658 0.061601 0.016522 -0.0045357 -0.077863 -0.043388 0.0046247 -0.19207 0.013894 0.052909 0.10909 -0.15006 -0.14033 -0.059295 0.072455 0.19168 0.058447 -0.0094662 -0.021344 0.1939 0.0080734 -0.13664 0.056314 -0.15115 0.04039 0.026644 -0.044357 0.15454 0.087135 -0.089229 0.029808 0.059501 -0.037674 0.15321 0.060318 0.11252 -0.14315 -0.068303 -0.068401 -0.0028897 0.012192 -0.10019 0.060451 -0.047825 -0.036113 -0.054233 0.02265 -0.0037734 
hỏi 0.04399 -0.1243 -0.077369 0.084166 -0.042963 0.0058696 -0.1581 -0.036366 0.13247 -0.028487 0.016145 0.024397 0.068928 -0.013064 0.011017 0.0023908 -0.034591 -0.091678 -0.011203 0.035304 -0.092175 0.048291 0.1362 0.008408 -0.0062342 0.12388 -0.047475 -0.021344 -0.097621 0.078435 0.11381 0.018898 0.01224 -0.0016282 -0.1206 -0.11589 -0.016963 -0.11189 -0.012482 0.061678 0.021724 0.095063 0.057911 -0.032738 -0.0096663 0.051107 0.04359 0.055895 0.10798 -0.015258 0.025505 -0.017331 -0.034703 0.03775 0.013242 -0.004461 -0.042923 -0.023068 0.0080401 -0.11492 0.0081401 0.033236 0.064049 -0.091514 -0.085308 -0.037833 0.043873 0.12192 0.036395 -0.0048885 -0.013259 0.12154 0.006617 -0.086584 0.036704 -0.091176 0.025057 0.013328 -0.027584 0.09002 0.054492 -0.054632 0.022442 0.036371 -0.022676 0.097021 0.039685 0.068647 -0.087826 -0.041178 -0.040106 -0.00075795 0.0086284 -0.062639 0.036742 -0.024128 -0.02469 -0.031648 0.011428 -0.0037525 
nào 0.090542 -0.23215 -0.15519 0.15715 -0.0795 0.010535 -0.29223 -0.074985 0.24887 -0.057873 0.034405 0.05494 0.12731 -0.021739 0.011314 0.0076508 -0.058069 -0.16992 -0.023187 0.067526 -0.16961 0.094281 0.2513 0.012194 -0.010904 0.23653 -0.082944 -0.039777 -0.18628 0.15557 0.21811 0.036927 0.015034 0.0057424 -0.22263 -0.21358 -0.033348 -0.21021 -0.027921 0.11211 0.041975 0.1789 0.11134 -0.054764 -0.023269 0.096282 0.076706 0.096556 0.20529 -0.023924 0.044784 -0.035568 -0.061617 0.069672 0.017858 -0.011619 -0.084153 -0.042686 0.011532 -0.21566 0.017827 0.059548 0.12133 -0.17002 -0.1611 -0.062914 0.085522 0.22164 0.068778 -0.0070919 -0.024742 0.22265 0.0085351 -0.16255 0.066359 -0.17433 0.050637 0.028812 -0.053143 0.17444 0.098633 -0.10892 0.03045 0.066678 -0.040072 0.17201 0.066644 0.12623 -0.16338 -0.080121 -0.07583 -0.0019496 0.013448 -0.11987 0.063034 -0.052577 -0.040727 -0.065233 0.024104 -0.0015578 
thế 0.12484 -0.33214 -0.22127 0.22469 -0.11807 0.010178 -0.41572 -0.10063 0.35986 -0.081478 0.045283 0.078703 0.18126 -0.027612 0.02073 0.013711 -0.089972 -0.24651 -0.037592 0.092229 -0.24421 0.13997 0.3637 0.024397 -0.01718 0.33924 -0.12069 -0.057187 -0.26565 0.2196 0.30941 0.056038 0.022647 -0.00026701 -0.32784 -0.30168 -0.04544 -0.30161 -0.039031 0.16151 0.063876 0.26238 0.16046 -0.081202 -0.026668 0.14009 0.10645 0.14137 0.29319 -0.033378 0.069247 -0.049632 -0.091887 0.10107 0.028318 -0.014676 -0.12329 -0.066892 0.015194 -0.31426 0.031626 0.085496 0.17538 -0.24123 -0.22638 -0.096219 0.11529 0.31891 0.09793 -0.014381 -0.038772 0.31745 0.015021 -0.23485 0.0939 -0.24501 0.068788 0.039715 -0.078289 0.24504 0.14355 -0.14774 0.053963 0.1003 -0.059422 0.25251 0.10216 0.18006 -0.23842 -0.11459 -0.11024 -0.0030706 0.015914 -0.16444 0.10028 -0.078255 -0.05937 -0.089042 0.030488 -0.0058439 
như 0.10478 -0.27473 -0.18417 0.18708 -0.096274 0.0083636 -0.35393 -0.084765 0.29749 -0.068124 0.038989 0.064481 0.15202 -0.024518 0.017567 0.010405 -0.072771 -0.2039 -0.025295 0.081033 -0.20161 0.11698 0.30158 0.015649 -0.014075 0.2835 -0.10074 -0.046658 -0.22155 0.18767 0.25888 0.043845 0.018099 -0.00094893 -0.27692 -0.25246 -0.035997 -0.25367 -0.034487 0.13659 0.056737 0.21732 0.13894 -0.067448 -0.027863 0.11194 0.089517 0.11989 0.24861 -0.028884 0.055561 -0.045553 -0.076266 0.086386 0.021958 -0.0098592 -0.10402 -0.050262 0.012013 -0.25712 0.02227 0.072212 0.14724 -0.20254 -0.19022 -0.073876 0.098984 0.26636 0.083381 -0.0083302 -0.027434 0.26879 0.0090409 -0.19645 0.075132 -0.20854 0.054386 0.036132 -0.061555 0.21194 0.11764 -0.12282 0.047666 0.084181 -0.049836 0.21462 0.084739 0.15208 -0.1989 -0.09307 -0.09149 -0.0044482 0.018625 -0.13792 0.081953 -0.064955 -0.048636 -0.0761 0.031319 -0.00066509 
mưa 0.07811 -0.20014 -0.13273 0.1366 -0.067122 0.0086617 -0.25094 -0.057776 0.21654 -0.047682 0.030189 0.044707 0.11128 -0.018523 0.01289 0.0075172 -0.050999 -0.14257 -0.026654 0.055224 -0.15011 0.081926 0.21458 0.011874 -0.0074994 0.206 -0.074662 -0.030745 -0.16194 0.13375 0.18474 0.031899 0.012859 -0.00067783 -0.19559 -0.18387 -0.028442 -0.18304 -0.023738 0.099456 0.039869 0.1534 0.096695 -0.046817 -0.018986 0.084069 0.063238 0.085263 0.177 -0.020309 0.038552 -0.026673 -0.058128 0.062034 0.01165 -0.0077769 -0.072933 -0.038894 0.0091704 -0.18757 0.0088436 0.050635 0.1095 -0.14759 -0.13451 -0.059717 0.072364 0.19202 0.061688 -0.0052876 -0.022049 0.19364 0.006118 -0.14349 0.054481 -0.15427 0.041767 0.022908 -0.045636 0.1469 0.084937 -0.089988 0.02979 0.061367 -0.040102 0.15243 0.062514 0.11031 -0.1427 -0.070189 -0.071088 -0.0008596 0.01455 -0.096557 0.062564 -0.047846 -0.033834 -0.056332 0.020047 -0.0038985 
sao 0.079259 -0.21353 -0.14019 0.14543 -0.074409 0.0081215 -0.26613 -0.065842 0.23477 -0.049359 0.030629 0.04997 0.11618 -0.023635 0.010927 0.0083269 -0.053792 -0.15481 -0.022575 0.065055 -0.1638 0.090329 0.23319 0.012404 -0.00925 0.21978 -0.075707 -0.036469 -0.17307 0.14504 0.19775 0.038712 0.0083346 0.0050581 -0.21321 -0.1992 -0.029664 -0.19341 -0.022973 0.10919 0.043361 0.16395 0.10242 -0.052392 -0.019281 0.08761 0.069718 0.088174 0.19594 -0.019429 0.038457 -0.029498 -0.060196 0.066661 0.021461 -0.0055079 -0.076763 -0.040575 0.0071113 -0.20321 0.014567 0.058321 0.114 -0.15601 -0.14847 -0.065614 0.078719 0.21041 0.063514 -0.0091249 -0.025348 0.20494 0.007765 -0.15141 0.05709 -0.16181 0.047088 0.029381 -0.050658 0.16401 0.091369 -0.098494 0.033575 0.064116 -0.03774 0.16847 0.065247 0.11715 -0.15255 -0.074899 -0.067476 -0.003408 0.017057 -0.10901 0.060267 -0.047289 -0.040303 -0.058606 0.020456 -0.0073022 
ra 0.058088 -0.1409 -0.091652 0.088434 -0.044915 0.0047493 -0.17555 -0.046921 0.14237 -0.033672 0.022957 0.027925 0.071328 -0.016084 0.010746 0.0038913 -0.03133 -0.10352 -0.013676 0.041309 -0.10113 0.054552 0.14494 0.01054 -0.0066843 0.14002 -0.051142 -0.016257 -0.11817 0.092904 0.13205 0.024148 0.01031 -0.003094 -0.13873 -0.12734 -0.023526 -0.12499 -0.014423 0.070458 0.025617 0.10856 0.067025 -0.031558 -0.011961 0.05675 0.04933 0.063203 0.1242 -0.0081811 0.024537 -0.021815 -0.038864 0.039635 0.011703 -0.0035008 -0.046545 -0.029793 0.0086666 -0.13178 0.012208 0.034106 0.069597 -0.093368 -0.096267 -0.042886 0.050013 0.13008 0.040369 0.0011222 -0.016315 0.13464 0.0051639 -0.097593 0.042825 -0.10095 0.02788 0.016056 -0.031401 0.10583 0.057038 -0.055714 0.01618 0.043773 -0.022084 0.10609 0.042818 0.065727 -0.098783 -0.048524 -0.042402 -0.001415 0.012182 -0.071728 0.037945 -0.027181 -0.023409 -0.036946 0.014779 -0.0038798 
độ 0.066781 -0.16279 -0.11506 0.11313 -0.058951 0.0083637 -0.2109 -0.049998 0.18328 -0.040851 0.025101 0.038948 0.093391 -0.015977 0.0080026 -0.0014886 -0.042045 -0.12104 -0.017152 0.046617 -0.12363 0.067825 0.1871 0.013241 -0.0083073 0.17125 -0.058299 -0.025085 -0.13608 0.11116 0.15887 0.028922 0.01323 -0.0012533 -0.16762 -0.156 -0.026645 -0.15146 -0.015797 0.08575 0.032347 0.13363 0.083779 -0.035783 -0.017388 0.074291 0.052292 0.075027 0.14687 -0.01845 0.034184 -0.024423 -0.045885 0.051751 0.011138 -0.0074774 -0.057053 -0.032193 0.0046452 -0.16095 0.011251 0.039398 0.09119 -0.12399 -0.11834 -0.05035 0.059546 0.15903 0.050486 -0.002011 -0.021311 0.16337 0.013325 -0.1212 0.0485 -0.12436 0.037196 0.022121 -0.042367 0.12582 0.067293 -0.07533 0.02149 0.050636 -0.033837 0.12695 0.049867 0.090589 -0.11845 -0.054045 -0.059652 -0.0016132 0.0093526 -0.080151 0.050083 -0.039432 -0.031606 -0.043576 0.016166 -0.0025085 
phải 0.054107 -0.13651 -0.087542 0.090393 -0.046093 0.0012352 -0.16734 -0.041811 0.14174 -0.033124 0.01623 0.030508 0.07087 -0.016755 0.0071348 0.0050822 -0.035962 -0.10016 -0.013411 0.036405 -0.098894 0.055133 0.14286 0.0083581 -0.0061509 0.13597 -0.046812 -0.023206 -0.10534 0.089793 0.12502 0.020451 0.010494 0.00093577 -0.13382 -0.12532 -0.015842 -0.12121 -0.015982 0.06856 0.026308 0.10434 0.065664 -0.035159 -0.014388 0.053685 0.043114 0.055939 0.11804 -0.013382 0.026393 -0.018468 -0.039058 0.040412 0.0083905 -0.0064435 -0.048049 -0.027185 0.0074285 -0.12625 0.0068048 0.037165 0.0693 -0.099366 -0.090942 -0.038508 0.047234 0.13092 0.039885 -0.0022855 -0.016786 0.13066 0.0050165 -0.09514 0.037215 -0.098238 0.029816 0.015757 -0.028526 0.10155 0.062315 -0.060357 0.020315 0.037826 -0.022852 0.10084 0.039307 0.0738 -0.091974 -0.046951 -0.044277 -0.0021874 0.010574 -0.065065 0.037992 -0.028657 -0.022189 -0.031674 0.014191 -0.0011933 
? 0.089302 -0.22378 -0.15192 0.15367 -0.076564 0.0071401 -0.29534 -0.069942 0.25565 -0.0567 0.032346 0.050001 0.12694 -0.015866 0.012147 0.0062777 -0.067941 -0.17179 -0.022128 0.06324 -0.17486 0.095464 0.24788 0.01812 -0.0064837 0.2347 -0.077655 -0.045409 -0.18306 0.14795 0.21555 0.036529 0.022396 -0.0030893 -0.23109 -0.2144 -0.030793 -0.21724 -0.032072 0.11599 0.049392 0.17847 0.11461 -0.057443 -0.018166 0.090015 0.075633 0.10318 0.20709 -0.028264 0.049452 -0.030621 -0.065851 0.072714 0.014801 -0.00803 -0.088569 -0.036196 0.017995 -0.21418 0.02257 0.059392 0.13244 -0.16906 -0.16464 -0.063535 0.088246 0.2179 0.067895 -0.0095406 -0.029922 0.22305 0.0067106 -0.16134 0.068364 -0.16856 0.048248 0.028675 -0.057577 0.17835 0.099347 -0.1082 0.04221 0.069795 -0.041336 0.18418 0.067304 0.12633 -0.16338 -0.08045 -0.073747 -0.0011993 0.017887 -0.12414 0.066218 -0.054968 -0.041214 -0.061527 0.019199 -0.0060531 
gió 0.050488 -0.13146 -0.08704 0.091933 -0.041697 0.010235 -0.16668 -0.04048 0.14111 -0.032777 0.01878 0.029965 0.075328 -0.0145 0.012457 0.0056436 -0.03556 -0.09991 -0.01354 0.038487 -0.097683 0.057226 0.14652 0.011554 -0.004825 0.13301 -0.050611 -0.01954 -0.10574 0.088708 0.1262 0.023286 0.011963 0.0020862 -0.13283 -0.12268 -0.018799 -0.11935 -0.019812 0.066646 0.026072 0.1075 0.064034 -0.030949 -0.011741 0.059133 0.046346 0.057004 0.11942 -0.016914 0.029329 -0.02012 -0.03682 0.041248 0.0071955 -0.0012004 -0.049773 -0.027107 0.0073588 -0.12683 0.012269 0.036702 0.069917 -0.095289 -0.095924 -0.042525 0.048051 0.12901 0.041284 6.5808e-05 -0.016189 0.12769 0.0054236 -0.092351 0.03749 -0.10028 0.027134 0.017694 -0.029587 0.10316 0.059928 -0.065508 0.017174 0.037816 -0.026763 0.098789 0.036622 0.07169 -0.09561 -0.047782 -0.041054 -0.0004532 0.0075509 -0.068319 0.038408 -0.032288 -0.025494 -0.035578 0.016868 -0.0020854 
nắng 0.10033 -0.26007 -0.16885 0.1749 -0.091075 0.0086951 -0.32737 -0.080091 0.28449 -0.065456 0.03776 0.058468 0.14292 -0.024043 0.017123 0.0083012 -0.067988 -0.19036 -0.027534 0.077835 -0.18916 0.10921 0.28021 0.014204 -0.010846 0.2586 -0.097471 -0.048078 -0.20716 0.17383 0.23933 0.045361 0.020777 0.0017045 -0.25875 -0.24024 -0.034375 -0.23662 -0.027963 0.13034 0.049631 0.19845 0.12476 -0.05815 -0.022322 0.10853 0.082994 0.11136 0.2333 -0.026218 0.055249 -0.037926 -0.070825 0.080353 0.015734 -0.0082122 -0.093369 -0.049139 0.011415 -0.24283 0.016726 0.069146 0.13865 -0.18868 -0.1787 -0.071703 0.090021 0.24964 0.075091 -0.0071076 -0.028699 0.24975 0.010746 -0.1851 0.070492 -0.19344 0.05381 0.030698 -0.057727 0.19721 0.11048 -0.11431 0.040956 0.078359 -0.048917 0.20008 0.081319 0.14257 -0.18797 -0.091494 -0.084813 -0.003204 0.016751 -0.13135 0.077707 -0.061942 -0.042808 -0.06917 0.026502 -0.0066092 
ẩm 0.038776 -0.10283 -0.070945 0.065157 -0.0323 0.0070638 -0.13012 -0.029299 0.11342 -0.02493 0.011788 0.027461 0.053894 -0.007537 0.0081295 0.0093719 -0.028955 -0.073271 -0.015159 0.030138 -0.073402 0.044856 0.11186 0.0040039 -0.0011542 0.10187 -0.034426 -0.020043 -0.082979 0.064473 0.097524 0.015423 0.0096887 0.0048996 -0.10186 -0.098705 -0.015074 -0.093167 -0.0098985 0.051182 0.020314 0.081835 0.049235 -0.029652 -0.0087627 0.045444 0.038509 0.041262 0.096502 -0.014787 0.019918 -0.012697 -0.027126 0.031739 0.010364 -0.0045736 -0.040776 -0.018038 0.002616 -0.098044 0.0067674 0.026851 0.058988 -0.078241 -0.070993 -0.032653 0.039041 0.10392 0.032129 0.0010903 -0.016865 0.095207 0.0071323 -0.072606 0.028895 -0.07237 0.022098 0.015034 -0.024745 0.085591 0.049111 -0.049828 0.014803 0.027745 -0.016314 0.086641 0.032279 0.060315 -0.077097 -0.036584 -0.034003 -0.00076797 0.0047155 -0.052133 0.034067 -0.025316 -0.022491 -0.026475 0.01344 -0.006833 
nhiệt 0.07731 -0.21183 -0.13908 0.14418 -0.074311 0.0068916 -0.2688 -0.063061 0.23004 -0.049882 0.030265 0.048294 0.11362 -0.020046 0.012143 0.0087352 -0.057244 -0.15572 -0.022769 0.063572 -0.15724 0.088676 0.22754 0.011884 -0.0098073 0.21309 -0.07984 -0.03673 -0.17462 0.14105 0.19798 0.033033 0.012913 -0.00039862 -0.20986 -0.19636 -0.027089 -0.19259 -0.026006 0.10299 0.039849 0.16239 0.10264 -0.050399 -0.019879 0.089425 0.069083 0.087273 0.1919 -0.020782 0.048101 -0.032368 -0.0573 0.065902 0.01773 -0.0084901 -0.076715 -0.038869 0.0095689 -0.19873 0.017423 0.054327 0.11284 -0.15339 -0.14585 -0.059095 0.075437 0.20372 0.060793 -0.0053839 -0.023024 0.20143 0.0082817 -0.15225 0.057539 -0.15729 0.043724 0.021581 -0.046669 0.15993 0.089334 -0.097854 0.031564 0.062449 -0.041636 0.1597 0.064533 0.11745 -0.15375 -0.075894 -0.071196 -0.0013796 0.012896 -0.10766 0.063555 -0.049026 -0.036539 -0.056567 0.020793 -0.0056703 
mai 0.086243 -0.2235 -0.14604 0.15502 -0.082153 0.0071566 -0.28633 -0.068216 0.24811 -0.056368 0.032362 0.051777 0.12231 -0.020277 0.0087185 0.0069503 -0.060807 -0.17021 -0.023671 0.06579 -0.16358 0.092665 0.24363 0.017135 -0.0066419 0.22425 -0.088142 -0.039297 -0.18465 0.14798 0.21185 0.039133 0.016933 0.0058846 -0.22541 -0.21125 -0.030463 -0.20487 -0.025165 0.11238 0.042353 0.17296 0.10858 -0.053594 -0.021598 0.098349 0.076753 0.09384 0.20758 -0.021118 0.049463 -0.033867 -0.064274 0.068741 0.014088 -0.0086332 -0.081865 -0.041051 0.0090386 -0.21103 0.016349 0.063901 0.12195 -0.16677 -0.15694 -0.065226 0.081102 0.22028 0.064594 -0.0060586 -0.02502 0.21852 0.0068492 -0.1607 0.063061 -0.1697 0.04521 0.02462 -0.053405 0.1726 0.097602 -0.10496 0.0344 0.069286 -0.039737 0.17259 0.065637 0.12193 -0.16082 -0.075629 -0.078046 -0.0042008 0.017914 -0.11682 0.065754 -0.0549 -0.03545 -0.059954 0.024785 -0.007604 
mây 0.026863 -0.070517 -0.046702 0.04498 -0.022096 0.0032673 -0.085352 -0.023273 0.073556 -0.014697 0.013398 0.016542 0.03711 -0.0083428 0.0045326 0.0032094 -0.01724 -0.04975 -0.0057729 0.020313 -0.050073 0.02647 0.072929 0.0065244 -0.00021173 0.064825 -0.024969 -0.012236 -0.053062 0.044374 0.062757 0.0098351 0.0016247 0.00077671 -0.067205 -0.065976 -0.0082839 -0.057092 -0.0062283 0.037505 0.014641 0.052694 0.031857 -0.016462 -0.0067515 0.024365 0.018809 0.029096 0.058775 -0.0060778 0.013444 -0.0097061 -0.020736 0.017525 0.0085037 -0.00053512 -0.023694 -0.013026 0.0059546 -0.065631 0.0064835 0.015773 0.037618 -0.049103 -0.044886 -0.016921 0.025431 0.064754 0.020682 0.0012512 -0.0077745 0.067922 0.0012568 -0.045514 0.016244 -0.049119 0.013162 0.011396 -0.019737 0.050378 0.028039 -0.029599 0.0093589 0.0186 -0.011349 0.047414 0.021072 0.039116 -0.050622 -0.022791 -0.021182 0.0022986 0.0072922 -0.032501 0.018808 -0.017637 -0.01355 -0.017746 0.0081849 7.9649e-06 
ạ 0.087653 -0.21362 -0.1353 0.14243 -0.073605 -0.0013708 -0.2714 -0.061834 0.23231 -0.050576 0.030318 0.057705 0.11409 -0.025479 0.0066448 0.0086709 -0.056586 -0.15877 -0.031505 0.068712 -0.15716 0.084541 0.23041 0.0080963 -0.0073366 0.21336 -0.075585 -0.041979 -0.17514 0.1449 0.20374 0.02969 0.0066063 0.0041171 -0.21066 -0.19819 -0.028281 -0.19407 -0.018406 0.10171 0.039661 0.16745 0.098917 -0.054595 -0.028662 0.089896 0.068884 0.07961 0.18984 -0.026863 0.046731 -0.034599 -0.057736 0.066612 0.020273 -0.0064738 -0.084867 -0.04486 0.014398 -0.19785 0.021118 0.055669 0.11286 -0.15243 -0.14994 -0.061102 0.084612 0.2048 0.059108 -0.0084948 -0.025369 0.2039 0.0043932 -0.14561 0.061676 -0.15273 0.039411 0.033082 -0.049233 0.16433 0.091619 -0.099173 0.035706 0.061831 -0.045906 0.16214 0.065595 0.11539 -0.1515 -0.072732 -0.076018 -0.0033577 0.0043754 -0.10005 0.058865 -0.052906 -0.035655 -0.05853 0.018569 -0.0037816 
nóng 0.094883 -0.24728 -0.16288 0.16537 -0.088826 0.0087014 -0.31336 -0.078173 0.27166 -0.058474 0.034356 0.054374 0.13418 -0.02174 0.016245 0.007819 -0.064338 -0.18125 -0.02769 0.072625 -0.18122 0.10537 0.26655 0.010963 -0.010178 0.24854 -0.090214 -0.04165 -0.19947 0.1649 0.22875 0.044641 0.019709 0.0033945 -0.24656 -0.22562 -0.032811 -0.22554 -0.023507 0.12557 0.050599 0.19264 0.1189 -0.062312 -0.024272 0.10565 0.079271 0.10495 0.22613 -0.02302 0.049906 -0.037015 -0.066782 0.076388 0.019225 -0.0095294 -0.090915 -0.047959 0.012132 -0.23148 0.019169 0.064088 0.13042 -0.18107 -0.16946 -0.071249 0.087048 0.23963 0.071771 -0.0090571 -0.027029 0.23319 0.0086081 -0.17618 0.068762 -0.18231 0.054951 0.031563 -0.05576 0.18689 0.10528 -0.10895 0.038828 0.073032 -0.04175 0.18709 0.077763 0.13482 -0.17722 -0.086118 -0.077987 -0.0016877 0.017544 -0.12097 0.074693 -0.06027 -0.039674 -0.066706 0.026719 -0.0055427 
lạnh 0.10116 -0.26775 -0.17676 0.18066 -0.09397 0.005768 -0.33646 -0.081879 0.29155 -0.061059 0.037825 0.061586 0.14178 -0.030005 0.015621 0.0095368 -0.070794 -0.19712 -0.028764 0.077695 -0.19943 0.11084 0.29179 0.01639 -0.011544 0.27206 -0.098919 -0.044706 -0.21674 0.17642 0.24593 0.047041 0.016222 0.0012567 -0.26362 -0.24537 -0.038007 -0.2428 -0.02943 0.13425 0.051163 0.20684 0.12871 -0.064048 -0.022794 0.11361 0.084346 0.10961 0.24105 -0.02635 0.058316 -0.040335 -0.072228 0.084687 0.020381 -0.010387 -0.096067 -0.050167 0.0107 -0.25119 0.019561 0.071802 0.14041 -0.19765 -0.18621 -0.075415 0.093556 0.25766 0.076924 -0.0083884 -0.028555 0.25478 0.0055592 -0.19342 0.074377 -0.19546 0.055671 0.031822 -0.062782 0.20537 0.11727 -0.11982 0.040174 0.079989 -0.047501 0.20787 0.079985 0.1453 -0.19314 -0.093754 -0.085951 0.001513 0.016005 -0.13252 0.076882 -0.066829 -0.049486 -0.074674 0.031316 -0.003228 
ngày 0.10768 -0.28984 -0.19032 0.19278 -0.099293 0.0084372 -0.36782 -0.088718 0.31615 -0.069879 0.037741 0.065787 0.15971 -0.030857 0.01859 0.010778 -0.076117 -0.2149 -0.029396 0.083565 -0.21377 0.11904 0.3135 0.016776 -0.013124 0.29252 -0.10756 -0.048135 -0.23447 0.18969 0.2706 0.046947 0.020494 0.0010561 -0.28808 -0.26732 -0.03752 -0.26608 -0.032396 0.14124 0.058049 0.22411 0.14242 -0.072183 -0.0259 0.12332 0.094179 0.12051 0.26371 -0.029291 0.063492 -0.043778 -0.083034 0.093213 0.024343 -0.014345 -0.10455 -0.059003 0.0093201 -0.27136 0.022576 0.075624 0.15307 -0.20989 -0.20003 -0.081451 0.10308 0.28169 0.086061 -0.0086099 -0.031385 0.28008 0.0092736 -0.20329 0.081869 -0.21496 0.060323 0.037995 -0.067301 0.22313 0.12441 -0.1322 0.044806 0.085343 -0.054699 0.22227 0.086979 0.15768 -0.20785 -0.099851 -0.095101 -0.00049689 0.022325 -0.14322 0.086409 -0.066916 -0.052009 -0.080499 0.028719 -0.0050303 
ad 0.065806 -0.18379 -0.12178 0.1216 -0.061848 0.0058774 -0.23692 -0.055969 0.20355 -0.04541 0.026092 0.039427 0.09973 -0.016645 0.011767 0.00037527 -0.046968 -0.13619 -0.016874 0.050778 -0.13968 0.082433 0.20837 0.0077651 -0.0061343 0.18869 -0.065671 -0.037511 -0.15327 0.12852 0.1714 0.03456 0.017866 0.0017296 -0.18924 -0.16972 -0.025237 -0.17412 -0.021153 0.090534 0.037138 0.15105 0.09441 -0.045484 -0.018733 0.077208 0.059915 0.079232 0.16674 -0.019076 0.040016 -0.030532 -0.052367 0.059165 0.015482 -0.002518 -0.073596 -0.036041 0.0085267 -0.17459 0.013945 0.042157 0.10162 -0.13641 -0.13186 -0.049942 0.069088 0.18291 0.059483 -0.0080805 -0.018924 0.17762 0.0049522 -0.13461 0.049652 -0.14041 0.032696 0.028169 -0.047454 0.14169 0.079811 -0.085352 0.028804 0.058532 -0.033448 0.1406 0.060472 0.1042 -0.13675 -0.061099 -0.059506 -0.0049423 0.011627 -0.089419 0.052588 -0.043103 -0.03169 -0.051264 0.017651 -0.0023084 
nhiều 0.088413 -0.23794 -0.15694 0.16174 -0.084232 0.0080698 -0.29935 -0.072978 0.25757 -0.055058 0.033276 0.055035 0.12856 -0.022287 0.014654 0.0078956 -0.061218 -0.1761 -0.028796 0.066195 -0.17864 0.098874 0.25816 0.01395 -0.0093564 0.23989 -0.08866 -0.043858 -0.19315 0.15978 0.22038 0.039358 0.016812 0.0010824 -0.23896 -0.21867 -0.031409 -0.21557 -0.029776 0.11674 0.048229 0.18272 0.1133 -0.057071 -0.020494 0.098748 0.077672 0.10116 0.21735 -0.023833 0.050536 -0.0366 -0.068467 0.073781 0.015989 -0.0065657 -0.085076 -0.046302 0.012996 -0.22263 0.017312 0.061977 0.12692 -0.17779 -0.16773 -0.066352 0.082238 0.22872 0.070677 -0.0094695 -0.024401 0.2264 0.0075017 -0.16806 0.067105 -0.17608 0.050504 0.026314 -0.053635 0.18289 0.099719 -0.10986 0.03771 0.070946 -0.041908 0.18676 0.073945 0.13038 -0.16922 -0.082658 -0.081971 -0.0015319 0.016214 -0.12091 0.068836 -0.053098 -0.042454 -0.066016 0.023399 -0.0031676 
ơi 0.095907 -0.26942 -0.17589 0.17916 -0.092051 0.0045557 -0.33613 -0.079873 0.29454 -0.065154 0.032263 0.062336 0.14469 -0.028242 0.012959 0.0052061 -0.073622 -0.19644 -0.035798 0.07196 -0.20329 0.11112 0.28773 0.01791 -0.015857 0.26836 -0.093311 -0.046263 -0.21899 0.1819 0.25277 0.042387 0.021512 0.0004272 -0.26271 -0.24449 -0.040144 -0.2474 -0.028628 0.13132 0.052496 0.20184 0.13178 -0.066573 -0.02278 0.11645 0.086451 0.10931 0.23758 -0.032473 0.060317 -0.04151 -0.078261 0.083325 0.020027 -0.012801 -0.09458 -0.049105 0.016314 -0.25442 0.01609 0.070779 0.13441 -0.19838 -0.1802 -0.074004 0.099582 0.26394 0.076469 -0.012475 -0.025934 0.25736 0.01193 -0.18681 0.074782 -0.20491 0.054696 0.039446 -0.057787 0.20134 0.11585 -0.12149 0.037312 0.082937 -0.043304 0.20458 0.076564 0.14649 -0.1968 -0.092908 -0.087383 -0.0023962 0.012088 -0.13452 0.082292 -0.059054 -0.05105 -0.066662 0.022448 -0.0042876 
ngoài 0.056584 -0.14783 -0.097907 0.099007 -0.053081 0.0049107 -0.18726 -0.045021 0.16088 -0.03529 0.021018 0.034153 0.0819 -0.014078 0.0059409 0.0053364 -0.039289 -0.10689 -0.015032 0.043662 -0.10794 0.060898 0.16397 0.0054445 -0.0058115 0.15143 -0.055061 -0.024725 -0.11957 0.096231 0.13831 0.022739 0.0093026 0.00053474 -0.14685 -0.13461 -0.019784 -0.13702 -0.016574 0.073489 0.029827 0.11517 0.06667 -0.03564 -0.01334 0.059575 0.048881 0.059685 0.13798 -0.013661 0.029805 -0.022642 -0.040075 0.046892 0.014344 -0.0096961 -0.054839 -0.027959 0.0071102 -0.13687 0.0091916 0.036221 0.078611 -0.10593 -0.10038 -0.041421 0.051991 0.1424 0.046251 -0.0051215 -0.016621 0.14159 0.0083695 -0.10422 0.038732 -0.10974 0.030476 0.018511 -0.032225 0.11041 0.06498 -0.066308 0.022141 0.046071 -0.029312 0.11532 0.045784 0.080222 -0.10594 -0.05054 -0.04881 -0.0017352 0.010547 -0.073458 0.041094 -0.034809 -0.026738 -0.040655 0.016385 -0.0051301 
to 0.047976 -0.12862 -0.081404 0.082681 -0.048367 -0.00012168 -0.16054 -0.042071 0.13759 -0.03135 0.017761 0.028846 0.068008 -0.010527 0.011313 0.0084589 -0.032684 -0.094184 -0.020518 0.034768 -0.093966 0.058668 0.13714 0.0079793 -0.0080987 0.12977 -0.047099 -0.028645 -0.10139 0.085889 0.12113 0.023108 0.0092769 0.0055078 -0.12835 -0.11783 -0.018016 -0.11414 -0.011173 0.063645 0.0214 0.10065 0.061281 -0.030811 -0.014026 0.05375 0.043065 0.057816 0.11479 -0.013861 0.035442 -0.023019 -0.03293 0.042773 0.006039 -0.0024689 -0.047833 -0.028245 0.0070363 -0.11947 0.0048089 0.028815 0.073147 -0.092786 -0.088895 -0.042209 0.046567 0.12527 0.032976 -0.00064651 -0.015531 0.12004 0.0069995 -0.092507 0.037499 -0.096722 0.022018 0.011532 -0.024866 0.095912 0.054053 -0.056911 0.022952 0.035714 -0.022278 0.098803 0.038671 0.071765 -0.090225 -0.046353 -0.04278 -0.0024264 0.0075355 -0.065732 0.040341 -0.030817 -0.024398 -0.0321 0.010639 0.0023801 
cao 0.084255 -0.2204 -0.13872 0.14711 -0.075667 0.0037277 -0.27305 -0.065726 0.23642 -0.051938 0.032446 0.0506 0.11894 -0.024225 0.013304 0.009756 -0.055848 -0.15899 -0.020539 0.064006 -0.16044 0.087549 0.23659 0.012287 -0.0085247 0.22013 -0.079675 -0.036334 -0.17117 0.14445 0.19845 0.035381 0.01242 0.0046152 -0.2177 -0.20109 -0.029023 -0.19986 -0.02393 0.11076 0.044965 0.16675 0.10715 -0.055564 -0.021335 0.087444 0.0697 0.090275 0.19167 -0.021885 0.04615 -0.030178 -0.060298 0.065529 0.018943 -0.0088754 -0.081614 -0.041578 0.0081397 -0.20382 0.013097 0.058323 0.11287 -0.15732 -0.15096 -0.063041 0.075764 0.2109 0.066251 -0.0062555 -0.022907 0.20914 0.0074921 -0.15372 0.056916 -0.16409 0.046474 0.033045 -0.047701 0.16225 0.095077 -0.10017 0.032674 0.062774 -0.04065 0.16952 0.064111 0.11928 -0.15669 -0.071278 -0.073626 -0.0014422 0.014176 -0.10721 0.064259 -0.052391 -0.041267 -0.055434 0.021019 0.0003036 
ở 0.052622 -0.13079 -0.080167 0.078714 -0.045674 0.0035238 -0.16099 -0.031865 0.13214 -0.026233 0.0095789 0.030497 0.07097 -0.012425 0.010117 0.0095204 -0.026115 -0.10022 -0.016943 0.037492 -0.090425 0.047165 0.13623 0.0144 0.00018899 0.12604 -0.053855 -0.025399 -0.096714 0.077112 0.1148 0.013805 0.0053565 0.0051064 -0.12449 -0.11483 -0.012596 -0.11557 -0.012891 0.057546 0.022229 0.098046 0.059214 -0.036665 -0.009761 0.048829 0.037065 0.05225 0.11572 -0.0085782 0.025385 -0.010349 -0.030745 0.033149 0.0019278 -0.0011483 -0.048587 -0.017131 -0.0019582 -0.11483 0.006833 0.033015 0.064547 -0.095892 -0.083901 -0.038307 0.049228 0.12213 0.031149 -0.0057487 -0.015419 0.11244 0.0099544 -0.086399 0.034727 -0.090142 0.028612 0.014477 -0.023187 0.094392 0.059326 -0.0554 0.020464 0.036717 -0.023502 0.097652 0.038763 0.069036 -0.09011 -0.043359 -0.045183 -0.00090403 0.0094746 -0.06418 0.038015 -0.029596 -0.024419 -0.030015 0.0068396 -0.0024903 
mùa 0.052862 -0.12113 -0.080126 0.079757 -0.04166 0.0042009 -0.15327 -0.038946 0.13388 -0.02951 0.018191 0.028594 0.065868 -0.011709 0.0030406 0.0058894 -0.031283 -0.092283 -0.014121 0.036346 -0.093165 0.050928 0.13019 0.009819 -0.0064791 0.12454 -0.044469 -0.0179 -0.10104 0.08243 0.11487 0.023825 0.0071315 0.0032588 -0.11957 -0.11236 -0.017997 -0.10977 -0.011779 0.060412 0.021664 0.094088 0.055889 -0.03031 -0.0099593 0.052082 0.04432 0.048926 0.11097 -0.012719 0.028897 -0.016071 -0.03264 0.039141 0.0099645 -0.0029238 -0.043317 -0.021307 0.0036458 -0.11908 0.0083627 0.033381 0.066357 -0.088392 -0.080245 -0.037223 0.041613 0.12113 0.034817 -0.0067221 -0.014561 0.11662 0.0027283 -0.08532 0.035668 -0.089313 0.023919 0.013082 -0.03087 0.095959 0.052576 -0.052399 0.020537 0.037657 -0.026726 0.096153 0.037833 0.064946 -0.088611 -0.042599 -0.04375 -0.00055512 0.004083 -0.062666 0.031574 -0.03089 -0.02003 -0.034145 0.0097557 0.0031636 
mù 0.036735 -0.08297 -0.055217 0.053979 -0.029217 0.0048642 -0.10538 -0.029318 0.093934 -0.024129 0.011271 0.023562 0.04594 -0.0063943 0.0027784 0.00063684 -0.017012 -0.065231 -0.010499 0.027508 -0.064097 0.042925 0.090245 0.0049572 -0.0056975 0.087246 -0.037697 -0.019189 -0.072552 0.05513 0.079973 0.012661 0.0094277 -0.00054069 -0.087941 -0.081487 -0.012413 -0.076556 -0.0094674 0.044662 0.021019 0.066672 0.039814 -0.018416 -0.010018 0.03903 0.031106 0.03513 0.078175 -0.0079797 0.019199 -0.012938 -0.026408 0.027374 0.011761 -0.0065708 -0.032908 -0.015055 0.0085249 -0.083451 0.010372 0.022602 0.048446 -0.063508 -0.056856 -0.02108 0.027908 0.084597 0.023586 -0.0067845 -0.013764 0.083391 0.0017408 -0.059398 0.020482 -0.062044 0.024594 0.013399 -0.01819 0.067389 0.036009 -0.043991 0.010643 0.022929 -0.018184 0.068145 0.026997 0.048044 -0.065442 -0.031124 -0.030833 0.0021339 0.0062186 -0.045364 0.028922 -0.01876 -0.016203 -0.021114 0.011432 -0.0049225 
sương 0.064856 -0.15979 -0.10598 0.10995 -0.055099 0.0073461 -0.20394 -0.051898 0.17288 -0.039774 0.02235 0.036665 0.088158 -0.013839 0.0077358 0.0043792 -0.043746 -0.1201 -0.017011 0.04843 -0.11909 0.066765 0.1732 0.0083819 -0.008234 0.16252 -0.059486 -0.027297 -0.13017 0.10731 0.14934 0.027003 0.010362 0.0034006 -0.15964 -0.14703 -0.023853 -0.14443 -0.018218 0.081374 0.030561 0.12214 0.079419 -0.042057 -0.014787 0.065811 0.0519 0.065987 0.14469 -0.016694 0.031139 -0.027323 -0.041689 0.047298 0.012715 -0.0057142 -0.058624 -0.031049 0.0057741 -0.15097 0.013948 0.042132 0.084887 -0.11794 -0.10976 -0.042567 0.055862 0.15563 0.048662 -0.005373 -0.017395 0.15497 0.0055422 -0.11652 0.043194 -0.11816 0.035291 0.018447 -0.036729 0.1175 0.070412 -0.070556 0.023407 0.047286 -0.02799 0.12472 0.048926 0.086407 -0.11529 -0.054201 -0.053905 -0.0018588 0.0094664 -0.078162 0.045328 -0.036908 -0.027835 -0.041931 0.014686 -0.0055198 
này 0.10701 -0.29547 -0.19117 0.19664 -0.10474 0.0082085 -0.36912 -0.089016 0.31893 -0.067409 0.041526 0.06562 0.1604 -0.029132 0.017349 0.013688 -0.079596 -0.21579 -0.031327 0.083349 -0.21518 0.12148 0.31379 0.017466 -0.0097068 0.30039 -0.10714 -0.048992 -0.23707 0.19915 0.27248 0.047455 0.018914 -0.00094693 -0.28983 -0.26742 -0.039801 -0.26532 -0.036755 0.14093 0.052004 0.23126 0.13746 -0.071762 -0.027063 0.12201 0.093874 0.12296 0.2602 -0.030462 0.060878 -0.04035 -0.083338 0.087471 0.023692 -0.010157 -0.10341 -0.054754 0.012844 -0.27299 0.023444 0.084026 0.15747 -0.21246 -0.20449 -0.079654 0.10511 0.28326 0.090052 -0.008696 -0.033303 0.28275 0.0071838 -0.20975 0.082974 -0.21776 0.057585 0.035334 -0.063972 0.21986 0.12746 -0.13082 0.043806 0.087157 -0.051491 0.22561 0.089427 0.16032 -0.2072 -0.099126 -0.098898 -0.0041432 0.01768 -0.14557 0.083546 -0.070809 -0.049556 -0.079761 0.031267 -0.0032419 
lượng 0.071279 -0.18687 -0.12302 0.12768 -0.067155 0.0056581 -0.23689 -0.057381 0.20475 -0.046719 0.023488 0.04076 0.10037 -0.016434 0.010409 0.0087964 -0.048748 -0.13949 -0.017933 0.056599 -0.13812 0.078448 0.20329 0.01052 -0.012155 0.18814 -0.071025 -0.032632 -0.15006 0.12105 0.17203 0.03028 0.011232 0.0023057 -0.18667 -0.17341 -0.023093 -0.17179 -0.021524 0.09336 0.036656 0.14525 0.094084 -0.047679 -0.019351 0.078774 0.061937 0.079362 0.16743 -0.019549 0.039782 -0.028665 -0.050028 0.056897 0.013424 -0.0062039 -0.068785 -0.036267 0.0054592 -0.17386 0.011507 0.048221 0.10008 -0.13832 -0.13205 -0.054987 0.067815 0.18084 0.052711 -0.0059557 -0.021596 0.17963 0.0074572 -0.1322 0.052711 -0.13831 0.041406 0.024898 -0.044031 0.14226 0.078042 -0.089353 0.027971 0.054776 -0.034781 0.14699 0.057705 0.10465 -0.13391 -0.063498 -0.06396 -0.0019662 0.012322 -0.09231 0.055725 -0.045257 -0.031558 -0.050373 0.021253 -0.0021692 
âm 0.025958 -0.062471 -0.043883 0.040143 -0.017481 0.0028891 -0.079199 -0.015222 0.067966 -0.015225 0.0024544 0.016196 0.035771 -0.0063477 0.0089972 -0.0033425 -0.018965 -0.0453 -0.0033675 0.024024 -0.043782 0.023873 0.06388 0.0030608 -0.0053679 0.06425 -0.022371 -0.010938 -0.045823 0.041979 0.059676 0.01078 0.0040376 0.0037456 -0.065621 -0.056273 -0.0092764 -0.05768 -0.0048933 0.029876 0.016654 0.049119 0.028326 -0.017286 -0.0026906 0.026039 0.023433 0.022516 0.059374 -0.0031365 0.0093741 -0.008536 -0.020613 0.016283 0.0059017 -0.0081775 -0.023532 -0.012715 -0.0032586 -0.056701 0.0031679 0.011243 0.039146 -0.051578 -0.045242 -0.014658 0.023266 0.055926 0.021193 -0.0054394 -0.0029887 0.059178 0.0062078 -0.041057 0.013584 -0.045772 0.011963 0.007484 -0.017102 0.052043 0.030257 -0.026729 0.0054911 0.022545 -0.0072317 0.045768 0.016692 0.031516 -0.043974 -0.018488 -0.019398 -0.004688 0.0037574 -0.029145 0.01818 -0.017946 -0.013354 -0.018455 0.0056921 -0.00090005 
u 0.022377 -0.072933 -0.044736 0.048084 -0.024967 0.0084717 -0.10168 -0.030167 0.084635 -0.020393 0.016428 0.014513 0.041179 -0.0037546 -0.0045785 0.0027529 -0.021573 -0.059203 -0.0090416 0.021814 -0.053232 0.031649 0.089564 0.0029977 -0.002689 0.085204 -0.019315 -0.014102 -0.062222 0.044793 0.076171 0.016035 -0.00010582 -0.0089046 -0.07932 -0.06789 -0.0034895 -0.069991 -0.0021674 0.032747 0.016154 0.062239 0.030491 -0.021653 -0.003218 0.028427 0.030699 0.038064 0.062234 -0.01266 0.010311 -0.016265 -0.020003 0.027235 0.0023301 0.001437 -0.032318 -0.0176 0.0043567 -0.077987 0.0052201 0.016961 0.040101 -0.049574 -0.058896 -0.022848 0.022812 0.069798 0.020401 -0.007079 -0.006741 0.075573 0.0052503 -0.056957 0.021376 -0.060025 0.01463 0.004991 -0.017523 0.061193 0.036436 -0.029168 0.014633 0.021753 -0.012847 0.055576 0.017054 0.040085 -0.056502 -0.025024 -0.023287 -0.0043707 0.0032451 -0.044344 0.027521 -0.018008 -0.017704 -0.02222 0.014685 -0.0022972 
đi 0.083467 -0.23009 -0.15029 0.14981 -0.077098 0.010953 -0.2856 -0.070737 0.23859 -0.055181 0.029082 0.048489 0.12333 -0.022822 0.014221 0.0047341 -0.062604 -0.16733 -0.021126 0.062726 -0.17066 0.090783 0.24305 0.0095987 -0.0081729 0.22811 -0.088063 -0.043808 -0.18494 0.14663 0.20708 0.037866 0.014086 -0.0037799 -0.22662 -0.20227 -0.026587 -0.2055 -0.026855 0.11129 0.043339 0.17619 0.10416 -0.052181 -0.021901 0.093289 0.076005 0.091651 0.20136 -0.017584 0.052503 -0.037546 -0.061467 0.070378 0.016121 -0.011943 -0.081327 -0.041159 0.0050699 -0.21191 0.01756 0.063599 0.11896 -0.16076 -0.1616 -0.055471 0.07723 0.22031 0.067208 -0.0046449 -0.026014 0.216 0.0056848 -0.16057 0.060111 -0.17067 0.047802 0.027016 -0.054108 0.17062 0.099742 -0.10791 0.036527 0.064396 -0.042801 0.16971 0.066931 0.12588 -0.15449 -0.08208 -0.070745 -0.0041373 0.015276 -0.11888 0.068265 -0.055469 -0.040101 -0.063855 0.022852 -0.0029076 
là 0.096843 -0.26335 -0.17112 0.17633 -0.097577 0.0048319 -0.33169 -0.084712 0.28567 -0.059725 0.036682 0.055952 0.14539 -0.025332 0.013806 0.0072982 -0.067547 -0.19546 -0.026074 0.072659 -0.18827 0.11146 0.28875 0.010526 -0.014663 0.26684 -0.094493 -0.043681 -0.21353 0.17569 0.24669 0.041434 0.017939 0.0063193 -0.25859 -0.24491 -0.033878 -0.23645 -0.036526 0.12916 0.049525 0.19712 0.12754 -0.065498 -0.026457 0.10704 0.085375 0.11053 0.23646 -0.024495 0.055946 -0.038964 -0.070633 0.08331 0.019601 -0.012742 -0.096998 -0.050867 0.0096056 -0.24875 0.01702 0.066599 0.13689 -0.18753 -0.18131 -0.07892 0.098119 0.25275 0.076448 -0.0077177 -0.031747 0.25398 0.011645 -0.18863 0.072436 -0.19596 0.052203 0.031283 -0.061051 0.19809 0.11196 -0.11817 0.0374 0.077168 -0.047573 0.19706 0.082734 0.14049 -0.18516 -0.094084 -0.093258 -0.0033822 0.020627 -0.12652 0.07537 -0.063263 -0.042939 -0.066276 0.027302 -0.0071586 
thì 0.12806 -0.35032 -0.2288 0.23594 -0.12347 0.0074143 -0.44114 -0.10808 0.37648 -0.080831 0.047907 0.079032 0.18845 -0.033917 0.020283 0.0085234 -0.094119 -0.26018 -0.039549 0.099287 -0.25782 0.14585 0.37781 0.021967 -0.016483 0.35505 -0.12979 -0.058732 -0.28027 0.2363 0.32275 0.059696 0.019573 -0.00069975 -0.34717 -0.3219 -0.045293 -0.32048 -0.040205 0.1745 0.066384 0.26772 0.16959 -0.084862 -0.032516 0.15098 0.11075 0.14441 0.31195 -0.034246 0.0699 -0.051902 -0.097967 0.10725 0.028219 -0.015939 -0.12694 -0.065496 0.013073 -0.32531 0.029044 0.08931 0.1857 -0.25223 -0.23734 -0.096291 0.12841 0.33607 0.10487 -0.011506 -0.037271 0.33442 0.011915 -0.24413 0.098065 -0.25446 0.067436 0.04475 -0.078685 0.26453 0.15116 -0.15607 0.057018 0.10431 -0.060589 0.26817 0.10454 0.18921 -0.25175 -0.11798 -0.11674 -0.0020113 0.02293 -0.17206 0.10586 -0.08341 -0.058663 -0.094366 0.030893 -0.0058711 
bao 0.11623 -0.31144 -0.20324 0.20987 -0.10961 0.0077802 -0.39265 -0.096676 0.33768 -0.076308 0.040624 0.069165 0.16899 -0.028932 0.016564 0.011605 -0.083437 -0.23344 -0.033236 0.088364 -0.23345 0.13506 0.34005 0.024123 -0.016835 0.31855 -0.11505 -0.05139 -0.25242 0.20652 0.28792 0.050957 0.020871 0.004004 -0.31001 -0.28381 -0.042117 -0.28825 -0.032519 0.15896 0.062535 0.24404 0.15294 -0.07727 -0.02878 0.1308 0.10184 0.13329 0.28149 -0.032906 0.065644 -0.047744 -0.088507 0.098371 0.025793 -0.0091012 -0.1151 -0.056978 0.016518 -0.29478 0.018808 0.082318 0.16778 -0.23112 -0.21414 -0.091776 0.11508 0.30304 0.093298 -0.0040203 -0.033577 0.29997 0.0052647 -0.22079 0.086826 -0.23266 0.06249 0.039359 -0.071495 0.23633 0.13625 -0.14087 0.050967 0.092319 -0.05769 0.24089 0.095112 0.16775 -0.22854 -0.10573 -0.10116 -0.0050759 0.016645 -0.15388 0.09252 -0.07385 -0.055363 -0.086104 0.029461 -0.0042993 
tao 0.11539 -0.31086 -0.20709 0.21372 -0.11231 0.0093977 -0.39742 -0.098821 0.34124 -0.076741 0.045451 0.073448 0.17105 -0.03261 0.019823 0.0098158 -0.078615 -0.23417 -0.034275 0.087849 -0.23211 0.1305 0.33993 0.019916 -0.01379 0.32066 -0.11876 -0.056868 -0.25102 0.20716 0.29098 0.051349 0.021727 0.0044227 -0.31163 -0.28759 -0.041164 -0.28757 -0.036919 0.15744 0.063335 0.24145 0.15134 -0.080357 -0.02907 0.13318 0.10042 0.13564 0.28424 -0.032746 0.066215 -0.049088 -0.089468 0.10016 0.026249 -0.014374 -0.11417 -0.05791 0.010657 -0.29302 0.019391 0.083559 0.1678 -0.23015 -0.21603 -0.08979 0.11333 0.30413 0.093211 -0.0093532 -0.034151 0.29998 0.0083758 -0.22153 0.08447 -0.2338 0.06617 0.039453 -0.072803 0.23858 0.1327 -0.14661 0.050737 0.093332 -0.06344 0.24286 0.096433 0.16834 -0.22898 -0.10634 -0.1057 -0.0047075 0.016128 -0.15601 0.094658 -0.069717 -0.056478 -0.084258 0.030047 -0.004441 
giờ 0.098701 -0.2628 -0.17287 0.17955 -0.089737 0.0070113 -0.32791 -0.082848 0.28523 -0.064739 0.034143 0.062322 0.1424 -0.025855 0.013981 0.0081035 -0.068352 -0.19292 -0.029185 0.073206 -0.1963 0.11229 0.28339 0.017247 -0.0093795 0.26493 -0.09803 -0.041927 -0.20813 0.17492 0.24189 0.040886 0.019483 0.00038513 -0.26175 -0.24287 -0.037263 -0.24096 -0.027704 0.12806 0.051402 0.20393 0.12878 -0.06304 -0.024163 0.11604 0.087846 0.11059 0.2376 -0.025782 0.054163 -0.039491 -0.071909 0.083389 0.020756 -0.0092816 -0.094791 -0.050344 0.011232 -0.24321 0.018535 0.072429 0.13963 -0.19451 -0.18203 -0.07841 0.092177 0.25161 0.077327 -0.0074986 -0.031606 0.24746 0.012952 -0.18957 0.072374 -0.19619 0.057477 0.031383 -0.059169 0.20083 0.10798 -0.12142 0.037255 0.077497 -0.049848 0.20086 0.080393 0.1452 -0.1844 -0.088643 -0.085846 -0.0017742 0.021742 -0.13391 0.077456 -0.058622 -0.04623 -0.072215 0.027655 -0.0031449 
trong 0.093438 -0.25118 -0.16664 0.17099 -0.08775 0.0061237 -0.32221 -0.077976 0.2781 -0.062648 0.033468 0.060157 0.13898 -0.022857 0.011801 0.0068621 -0.067503 -0.18913 -0.025303 0.070421 -0.18535 0.10405 0.27335 0.015201 -0.0115 0.25771 -0.095248 -0.044226 -0.20589 0.16576 0.23304 0.043706 0.017101 0.0031971 -0.25209 -0.23383 -0.033289 -0.22937 -0.028432 0.1247 0.050183 0.19347 0.12069 -0.063499 -0.02212 0.10657 0.081615 0.10929 0.23003 -0.026037 0.051516 -0.039759 -0.071024 0.079036 0.021593 -0.010892 -0.094192 -0.048619 0.012379 -0.23914 0.018913 0.067204 0.13434 -0.18185 -0.17501 -0.071422 0.091494 0.24347 0.073155 -0.0071519 -0.029365 0.24454 0.0069187 -0.17927 0.071252 -0.18812 0.050145 0.030481 -0.060088 0.19232 0.10857 -0.11188 0.037703 0.075838 -0.045322 0.19413 0.076002 0.13999 -0.18342 -0.086165 -0.085627 -0.0043087 0.016133 -0.12385 0.074203 -0.061063 -0.045191 -0.067446 0.024087 -0.0037784 
thấp 0.075947 -0.19567 -0.13088 0.12988 -0.069219 0.0064032 -0.25026 -0.062179 0.214 -0.044872 0.026897 0.044943 0.10383 -0.015698 0.012355 0.0031546 -0.048779 -0.14528 -0.021525 0.053125 -0.14534 0.080806 0.21419 0.010389 -0.01021 0.19715 -0.070232 -0.034423 -0.15656 0.12965 0.18212 0.033981 0.012006 -9.704e-05 -0.19384 -0.17739 -0.028288 -0.17735 -0.02373 0.097024 0.035392 0.15236 0.095291 -0.051366 -0.018408 0.083682 0.061603 0.083814 0.17581 -0.021659 0.040754 -0.033616 -0.052122 0.061635 0.01735 -0.0077872 -0.070073 -0.038317 0.0063562 -0.18264 0.016494 0.052519 0.10218 -0.14277 -0.13409 -0.057809 0.068975 0.18764 0.056681 -0.0068922 -0.022229 0.1833 0.0060626 -0.13525 0.056573 -0.14342 0.04336 0.02062 -0.044834 0.14643 0.085242 -0.085013 0.030106 0.058774 -0.036854 0.14913 0.057523 0.10799 -0.14366 -0.064464 -0.064461 0.00081809 0.01123 -0.099815 0.057183 -0.042763 -0.030441 -0.052577 0.023632 -0.0048877 
không? 0.098017 -0.25477 -0.1677 0.17259 -0.089243 0.0089129 -0.32288 -0.076927 0.28037 -0.064302 0.031736 0.057452 0.1394 -0.024244 0.01376 0.0082109 -0.067807 -0.1919 -0.030765 0.073784 -0.18981 0.10742 0.27887 0.01528 -0.0080121 0.26023 -0.098951 -0.043961 -0.2068 0.1706 0.23767 0.041759 0.018445 0.0021704 -0.25373 -0.23535 -0.035268 -0.23492 -0.024989 0.1289 0.052145 0.19819 0.12329 -0.060934 -0.020447 0.10575 0.083877 0.10901 0.23557 -0.027696 0.054184 -0.039383 -0.071882 0.079823 0.019502 -0.0079601 -0.09595 -0.049924 0.0092011 -0.2407 0.018255 0.064719 0.13704 -0.19166 -0.17711 -0.07495 0.092284 0.24298 0.071962 -0.0054046 -0.029412 0.24805 0.010425 -0.18102 0.071115 -0.18819 0.054287 0.030282 -0.060317 0.19323 0.10843 -0.11597 0.037043 0.076188 -0.047194 0.19561 0.078006 0.1412 -0.18483 -0.086886 -0.08495 -0.0016524 0.01807 -0.12838 0.072936 -0.062603 -0.042158 -0.069594 0.026476 -0.0050103 
em 0.063188 -0.17195 -0.12101 0.11515 -0.057302 0.0068292 -0.22051 -0.055559 0.1927 -0.045305 0.023366 0.039567 0.10152 -0.016866 0.0088257 0.010582 -0.048646 -0.13669 -0.018498 0.049965 -0.12858 0.071593 0.1883 0.010789 -0.0060707 0.18182 -0.064725 -0.023935 -0.14279 0.11852 0.16284 0.026995 0.01348 0.0058579 -0.17793 -0.16107 -0.017554 -0.15427 -0.021503 0.088632 0.033977 0.13074 0.086989 -0.042741 -0.015693 0.069045 0.051315 0.0747 0.15849 -0.021276 0.036543 -0.032439 -0.049086 0.056523 0.0166 -0.0075208 -0.066002 -0.039749 0.0021701 -0.16607 0.016624 0.045781 0.09605 -0.13526 -0.12362 -0.054747 0.062203 0.17522 0.051615 -0.0055173 -0.015909 0.16563 0.0056026 -0.12624 0.045191 -0.13063 0.037297 0.02416 -0.038241 0.13093 0.074023 -0.08202 0.023117 0.048649 -0.033178 0.13808 0.048679 0.097513 -0.13146 -0.06246 -0.057466 -0.0064295 0.013655 -0.087386 0.04817 -0.04534 -0.025848 -0.044725 0.021126 -0.0057643 
ăn 0.069346 -0.18813 -0.12314 0.12763 -0.066725 0.0010113 -0.24206 -0.052291 0.20913 -0.047798 0.027174 0.044065 0.10582 -0.018884 0.0088441 0.00028883 -0.046595 -0.14388 -0.018206 0.054757 -0.14387 0.079247 0.20492 0.016357 -0.010844 0.19446 -0.070661 -0.035991 -0.15439 0.1267 0.17722 0.034762 0.01023 0.00057785 -0.1882 -0.17661 -0.024463 -0.17328 -0.024001 0.097056 0.035622 0.14879 0.092366 -0.047843 -0.014833 0.087068 0.058537 0.073171 0.17197 -0.016725 0.040371 -0.030952 -0.051052 0.0566 0.0169 -0.012261 -0.070078 -0.037457 0.013825 -0.18374 0.014638 0.051149 0.10124 -0.14263 -0.13042 -0.051017 0.063682 0.18558 0.061464 -0.0068418 -0.019872 0.18069 0.006135 -0.13716 0.053289 -0.1367 0.042109 0.026965 -0.04267 0.14034 0.075968 -0.084608 0.026073 0.062694 -0.035884 0.14803 0.055422 0.098435 -0.13429 -0.060085 -0.060034 -0.0031924 0.0089185 -0.09602 0.061805 -0.043387 -0.037552 -0.057881 0.016908 -0.0022051 
vậy 0.098568 -0.2567 -0.1674 0.1737 -0.093111 0.0086401 -0.32698 -0.083144 0.27809 -0.060635 0.032046 0.058584 0.13991 -0.029223 0.016833 0.006812 -0.065598 -0.18465 -0.028072 0.069038 -0.19098 0.1072 0.27844 0.016104 -0.0069111 0.25642 -0.095348 -0.044848 -0.20927 0.17139 0.23814 0.041144 0.016494 -0.0019093 -0.25398 -0.23636 -0.035729 -0.23675 -0.029376 0.12977 0.052294 0.20099 0.12554 -0.067068 -0.024442 0.1097 0.082032 0.10479 0.23434 -0.022709 0.053872 -0.036999 -0.073454 0.080305 0.018642 -0.0090345 -0.092721 -0.046523 0.014572 -0.24337 0.016693 0.070108 0.13985 -0.18387 -0.17646 -0.074041 0.089732 0.24503 0.077182 -0.0084093 -0.029943 0.24563 0.0048769 -0.18379 0.070111 -0.19028 0.052142 0.031043 -0.063358 0.19921 0.11114 -0.11399 0.040828 0.075725 -0.047246 0.19811 0.080139 0.13885 -0.18665 -0.090579 -0.086175 -0.0041944 0.011894 -0.13215 0.075546 -0.061416 -0.045676 -0.069403 0.028314 -0.0039624 
bot 0.06021 -0.16436 -0.10584 0.11131 -0.05889 0.0034188 -0.20805 -0.046886 0.17572 -0.039827 0.02281 0.036063 0.088681 -0.011751 0.0081742 0.0070705 -0.04488 -0.12184 -0.020199 0.045948 -0.12466 0.065353 0.18216 0.0091489 -0.0090491 0.16646 -0.063218 -0.030518 -0.13341 0.10867 0.15288 0.024016 0.011355 0.0024259 -0.16504 -0.1462 -0.021199 -0.14818 -0.01793 0.085593 0.030816 0.12624 0.08247 -0.042964 -0.014277 0.071483 0.056725 0.071654 0.1487 -0.014571 0.03608 -0.023976 -0.043826 0.051548 0.014671 -0.0063178 -0.0636 -0.03236 0.009511 -0.15664 0.01449 0.045051 0.08782 -0.1225 -0.11296 -0.043007 0.061102 0.15835 0.048286 -0.0045063 -0.019132 0.16085 0.0091458 -0.11584 0.048392 -0.12205 0.035661 0.017274 -0.038771 0.12816 0.071737 -0.075164 0.026027 0.054241 -0.028455 0.12664 0.05089 0.091456 -0.11713 -0.056776 -0.056636 -0.0011249 0.012698 -0.084663 0.046486 -0.041673 -0.025636 -0.045101 0.014935 -0.0063184 
nay 0.088086 -0.23634 -0.15124 0.15821 -0.084304 0.0087354 -0.29617 -0.073235 0.25397 -0.059012 0.033136 0.051275 0.12543 -0.016213 0.016754 0.0073317 -0.060867 -0.17278 -0.023459 0.066455 -0.17014 0.091078 0.25801 0.013338 -0.0085717 0.23379 -0.088734 -0.042455 -0.18819 0.1581 0.21777 0.039383 0.015961 0.0040493 -0.23078 -0.21316 -0.029132 -0.21243 -0.030621 0.11449 0.045263 0.1816 0.11434 -0.050855 -0.019242 0.098568 0.078357 0.09541 0.21191 -0.021648 0.05012 -0.037037 -0.064329 0.073737 0.013945 -0.0064571 -0.083982 -0.045136 0.0081106 -0.21831 0.014624 0.061344 0.12123 -0.16907 -0.16228 -0.068523 0.086894 0.22613 0.065083 -0.012489 -0.024511 0.22598 0.0069414 -0.16662 0.066101 -0.17276 0.048142 0.031574 -0.052609 0.17436 0.10028 -0.10581 0.031966 0.065525 -0.043359 0.18068 0.074672 0.12959 -0.16569 -0.077795 -0.076616 -0.0048104 0.018156 -0.11895 0.070497 -0.057181 -0.04093 -0.065672 0.023727 -0.0088228 
tuần 0.089324 -0.23424 -0.15202 0.15333 -0.078515 0.0064053 -0.29028 -0.070006 0.25016 -0.058115 0.030748 0.05281 0.12707 -0.022495 0.01268 0.0099792 -0.060416 -0.16893 -0.023375 0.06419 -0.17175 0.099798 0.24965 0.015313 -0.0092649 0.23529 -0.083121 -0.038454 -0.18259 0.15416 0.213 0.036578 0.014322 0.0012925 -0.22842 -0.21239 -0.031662 -0.20588 -0.026748 0.11073 0.045468 0.1798 0.11353 -0.05651 -0.019765 0.096484 0.076688 0.099379 0.20665 -0.023613 0.049416 -0.035459 -0.064064 0.073733 0.019524 -0.007649 -0.08146 -0.042173 0.0086333 -0.21942 0.018266 0.060494 0.11986 -0.16863 -0.15985 -0.064951 0.081136 0.22573 0.06782 -0.0068538 -0.022494 0.22076 0.00991 -0.16178 0.062565 -0.16968 0.045913 0.030509 -0.054253 0.17246 0.099129 -0.10592 0.032462 0.069009 -0.042609 0.17939 0.070474 0.12478 -0.16588 -0.081991 -0.076451 -0.0020191 0.011543 -0.11327 0.07026 -0.055541 -0.041863 -0.061426 0.022268 -0.0018804 
rét 0.029281 -0.08308 -0.055118 0.058161 -0.029576 0.0041541 -0.11127 -0.024774 0.090916 -0.024291 0.011792 0.020685 0.046262 -0.0077572 0.0037944 0.0017726 -0.022257 -0.063299 -0.010438 0.023239 -0.064127 0.033214 0.092895 0.0048917 -0.00049926 0.087787 -0.030745 -0.015607 -0.069777 0.058069 0.083163 0.011105 -0.0022562 0.00037741 -0.083714 -0.080894 -0.0095375 -0.07988 -0.011572 0.043197 0.020476 0.069964 0.040028 -0.019654 -0.0068891 0.035395 0.02897 0.035773 0.077339 -0.010238 0.018767 -0.012545 -0.027453 0.029101 0.0036823 -0.0015475 -0.027206 -0.014526 0.0055723 -0.082318 0.0061442 0.023652 0.045898 -0.065159 -0.064628 -0.029486 0.030119 0.081227 0.0221 -0.00079444 -0.011561 0.079303 0.0095926 -0.060269 0.023206 -0.062953 0.021646 0.011136 -0.024804 0.065516 0.039642 -0.039007 0.015488 0.02743 -0.018272 0.06877 0.026576 0.046707 -0.064484 -0.034948 -0.024727 0.0028253 0.0068271 -0.04291 0.02929 -0.01872 -0.021291 -0.024284 0.0044227 -0.0033198 
chị 0.10102 -0.26518 -0.17147 0.17806 -0.096716 0.0092538 -0.33508 -0.082048 0.2883 -0.065008 0.034272 0.062335 0.14182 -0.025136 0.015734 0.012081 -0.072554 -0.19201 -0.027714 0.076379 -0.19677 0.10997 0.29168 0.016353 -0.012302 0.27197 -0.097391 -0.049558 -0.21136 0.17639 0.24272 0.044077 0.01676 0.0072238 -0.26406 -0.23978 -0.040852 -0.24685 -0.029438 0.13233 0.056302 0.20768 0.12797 -0.067666 -0.023585 0.11564 0.087747 0.11452 0.2417 -0.02531 0.055896 -0.044212 -0.07293 0.082053 0.02141 -0.0092164 -0.095812 -0.053466 0.0060922 -0.25031 0.017978 0.068586 0.1435 -0.19632 -0.17983 -0.072819 0.092543 0.25629 0.078321 -0.0080448 -0.028781 0.25945 0.0098699 -0.18689 0.074622 -0.19843 0.055711 0.036098 -0.058983 0.20056 0.11373 -0.12272 0.04269 0.079887 -0.051769 0.20706 0.081415 0.14958 -0.19369 -0.094757 -0.088948 -0.0028274 0.015915 -0.13076 0.079029 -0.061197 -0.044221 -0.072202 0.028295 -0.0081418 
gì 0.081523 -0.21903 -0.13927 0.14229 -0.078886 0.0082637 -0.26719 -0.068925 0.23851 -0.0506 0.028117 0.045531 0.11544 -0.021612 0.010943 0.0075298 -0.053132 -0.16487 -0.023807 0.066403 -0.16234 0.088703 0.23815 0.013037 -0.011251 0.218 -0.078367 -0.038167 -0.17681 0.14557 0.20243 0.038775 0.018081 0.0033648 -0.21988 -0.20084 -0.029491 -0.19121 -0.024203 0.10525 0.045944 0.16595 0.10362 -0.049703 -0.017008 0.087744 0.071557 0.087213 0.19271 -0.023147 0.046395 -0.029153 -0.063612 0.065635 0.021611 -0.0046145 -0.07987 -0.045563 0.012998 -0.19987 0.014751 0.055027 0.11153 -0.15707 -0.14985 -0.05975 0.075561 0.20598 0.060197 -0.0064562 -0.027032 0.20661 0.0032781 -0.15214 0.060245 -0.15869 0.044378 0.029718 -0.048406 0.16106 0.08798 -0.10303 0.028533 0.064484 -0.039023 0.1642 0.064174 0.1244 -0.15456 -0.071849 -0.069988 -0.00045909 0.015281 -0.10826 0.066538 -0.049671 -0.042573 -0.06023 0.019926 0.00049178 
ấm 0.023065 -0.069688 -0.048832 0.047651 -0.020894 0.00015394 -0.089108 -0.021178 0.07502 -0.016752 0.011554 0.018599 0.033066 -0.004932 0.0036139 -0.001298 -0.01444 -0.049783 -0.0058404 0.018021 -0.050114 0.026138 0.069363 0.0032175 -0.0059329 0.070632 -0.024368 -0.013657 -0.055447 0.046859 0.059892 0.010787 -0.0028 0.00033579 -0.066075 -0.062214 -0.0076661 -0.06506 -0.013216 0.027721 0.01102 0.058991 0.030343 -0.020522 -0.0056418 0.033028 0.025012 0.03256 0.060306 -0.0082497 0.015031 -0.011156 -0.017051 0.019153 0.0025989 0.00038677 -0.031084 -0.010872 0.0058174 -0.063226 0.0043023 0.014008 0.040724 -0.046987 -0.046022 -0.019483 0.022574 0.061187 0.025382 -0.0034271 -0.0037205 0.06508 0.0014286 -0.052492 0.020315 -0.053665 0.016969 0.0080521 -0.0083749 0.051699 0.029922 -0.027211 0.014423 0.019055 -0.017043 0.055018 0.020156 0.036417 -0.048036 -0.023696 -0.017776 0.0038933 0.0089935 -0.034924 0.02068 -0.020342 -0.012547 -0.01567 0.003767 -0.0018874 
quá 0.084815 -0.21903 -0.14885 0.14924 -0.073042 0.0071267 -0.27818 -0.068283 0.2386 -0.056954 0.030621 0.047855 0.12354 -0.018095 0.011913 0.0082101 -0.059014 -0.15868 -0.023475 0.063662 -0.16416 0.091717 0.23983 0.013421 -0.01291 0.22682 -0.081418 -0.038193 -0.18183 0.14813 0.2046 0.032847 0.015709 0.0018641 -0.21868 -0.20364 -0.03148 -0.20003 -0.026358 0.10647 0.041808 0.1732 0.10707 -0.0543 -0.021592 0.09305 0.072898 0.091486 0.19863 -0.021821 0.050896 -0.031486 -0.060026 0.070481 0.01601 -0.0069044 -0.076936 -0.046567 0.010108 -0.20766 0.016111 0.060126 0.116 -0.16157 -0.14939 -0.059012 0.078429 0.21475 0.064453 -0.00432 -0.020666 0.21244 0.0097981 -0.16102 0.060682 -0.16294 0.045135 0.026853 -0.052045 0.16816 0.095272 -0.10202 0.033445 0.065156 -0.043627 0.16981 0.06519 0.11832 -0.16058 -0.081524 -0.074372 0.0012869 0.012876 -0.10868 0.066907 -0.059059 -0.035073 -0.061354 0.016629 -0.0046081 
người 0.10345 -0.27511 -0.18396 0.18273 -0.096121 0.0098297 -0.34673 -0.082915 0.296 -0.063937 0.038226 0.063141 0.14704 -0.027255 0.015733 0.0070868 -0.074085 -0.2018 -0.031274 0.078948 -0.20191 0.11525 0.29767 0.015873 -0.012271 0.27938 -0.10412 -0.048392 -0.21756 0.18244 0.2528 0.043413 0.018904 0.0037859 -0.27244 -0.24907 -0.037091 -0.25137 -0.033142 0.13749 0.0545 0.21331 0.1326 -0.066938 -0.025708 0.11806 0.088537 0.11412 0.2469 -0.027179 0.055601 -0.042045 -0.076004 0.084235 0.02074 -0.0089281 -0.10021 -0.053027 0.015558 -0.25616 0.018868 0.071318 0.14357 -0.20168 -0.18811 -0.078272 0.095763 0.26701 0.081984 -0.010548 -0.031278 0.26322 0.0094415 -0.19355 0.079998 -0.20387 0.054592 0.036772 -0.063754 0.20716 0.11549 -0.12524 0.042006 0.080541 -0.048796 0.21203 0.08247 0.14923 -0.19597 -0.094084 -0.090275 -0.0010042 0.019877 -0.13621 0.083443 -0.064746 -0.047764 -0.074132 0.026253 -0.0063677 
và 0.091469 -0.23991 -0.1627 0.15912 -0.083426 0.0036524 -0.30369 -0.074055 0.26804 -0.063981 0.032544 0.059621 0.13001 -0.025409 0.012836 0.0040904 -0.066634 -0.17237 -0.029539 0.069203 -0.17829 0.097936 0.26096 0.019834 -0.0068339 0.25048 -0.09118 -0.04315 -0.1907 0.16117 0.22835 0.037113 0.018607 0.00017687 -0.24043 -0.2244 -0.036677 -0.21679 -0.026621 0.1198 0.051615 0.18891 0.11176 -0.058734 -0.024371 0.10061 0.08367 0.09946 0.21999 -0.020523 0.051799 -0.035872 -0.063541 0.076564 0.01809 -0.012639 -0.094316 -0.045847 0.0096281 -0.2287 0.020044 0.065226 0.12629 -0.17787 -0.16584 -0.063973 0.091693 0.23281 0.074653 -0.01239 -0.025246 0.23783 0.0072292 -0.17104 0.069108 -0.18472 0.054841 0.032748 -0.052851 0.18655 0.10464 -0.11068 0.033236 0.07036 -0.044506 0.18505 0.072969 0.13073 -0.16805 -0.083898 -0.07713 -0.0043973 0.011303 -0.12769 0.070144 -0.055243 -0.043182 -0.07177 0.028546 -0.0090179 
nhỉ? 0.087027 -0.23469 -0.15448 0.15699 -0.084913 0.0094697 -0.29825 -0.070581 0.25156 -0.05882 0.031675 0.052756 0.12767 -0.022664 0.010789 0.0098856 -0.062361 -0.17234 -0.022226 0.065617 -0.17409 0.099299 0.25464 0.011898 -0.0099564 0.24215 -0.089011 -0.040938 -0.18794 0.15848 0.21971 0.036232 0.018653 0.00021708 -0.23397 -0.21764 -0.029131 -0.21631 -0.024081 0.11868 0.04695 0.18392 0.11411 -0.056278 -0.023637 0.10037 0.072207 0.098568 0.21221 -0.022587 0.049013 -0.031118 -0.063555 0.071664 0.020481 -0.010141 -0.085396 -0.042252 0.0085639 -0.21811 0.017298 0.061705 0.12515 -0.16995 -0.15977 -0.064773 0.085507 0.22915 0.065095 -0.0058421 -0.027953 0.22511 0.0078753 -0.1693 0.065236 -0.17469 0.050155 0.030192 -0.053359 0.18047 0.10165 -0.11017 0.035108 0.069291 -0.041512 0.18104 0.074647 0.13154 -0.17005 -0.081325 -0.080983 0.0017357 0.015754 -0.11845 0.0697 -0.055127 -0.040166 -0.0626 0.021597 -0.0041523 
làm 0.09885 -0.2623 -0.17576 0.17993 -0.098033 0.0040593 -0.33554 -0.080269 0.28826 -0.066969 0.03233 0.063727 0.14106 -0.023742 0.012469 0.010974 -0.071712 -0.1999 -0.027225 0.076653 -0.19758 0.11176 0.29026 0.017797 -0.014839 0.26996 -0.099974 -0.046402 -0.21248 0.17695 0.24717 0.042012 0.020757 -0.0016553 -0.25727 -0.24595 -0.034594 -0.24151 -0.029349 0.13286 0.052968 0.20238 0.12994 -0.059291 -0.028877 0.11134 0.087526 0.113 0.23426 -0.023389 0.053372 -0.039912 -0.071276 0.080692 0.01928 -0.011491 -0.098078 -0.05509 0.014589 -0.25153 0.018036 0.067376 0.14025 -0.19005 -0.18165 -0.075875 0.092868 0.25478 0.078144 -0.011365 -0.028314 0.25837 0.0080244 -0.19035 0.077019 -0.19491 0.056836 0.034113 -0.061041 0.20511 0.11246 -0.11674 0.037476 0.079345 -0.054826 0.20164 0.08494 0.14826 -0.19224 -0.092475 -0.089506 0.0026874 0.022507 -0.13204 0.075903 -0.064203 -0.049358 -0.072478 0.027258 -0.0049109 
tuyết 0.034466 -0.091484 -0.056102 0.061502 -0.028522 0.0021958 -0.11484 -0.025444 0.10007 -0.021931 0.011621 0.020024 0.051244 -0.0082595 0.0053631 0.0034343 -0.021207 -0.066385 -0.007249 0.024881 -0.067464 0.037623 0.097649 0.0039916 -0.0018394 0.08861 -0.032607 -0.013759 -0.070393 0.057558 0.081188 0.015235 0.0074244 0.0010842 -0.086679 -0.07981 -0.012982 -0.078879 -0.0094078 0.044541 0.017819 0.069178 0.044715 -0.019935 -0.0064832 0.037601 0.030272 0.036001 0.079358 -0.008755 0.017754 -0.014319 -0.025886 0.030288 0.0099613 -0.0062532 -0.030889 -0.016442 0.0040628 -0.083505 0.0091061 0.021988 0.045573 -0.065705 -0.060848 -0.025581 0.034395 0.088645 0.027276 -0.0016817 -0.00823 0.086807 0.0041574 -0.063442 0.024016 -0.068996 0.01781 0.010376 -0.021235 0.069824 0.03968 -0.038004 0.01178 0.026931 -0.016148 0.070055 0.028367 0.04562 -0.065748 -0.030621 -0.027668 0.0006121 0.0035394 -0.046286 0.026488 -0.017867 -0.018744 -0.022406 0.011994 -0.00022364 
nhà 0.082773 -0.21373 -0.13601 0.14275 -0.0758 0.0065306 -0.26694 -0.065369 0.23101 -0.055636 0.030525 0.048434 0.11312 -0.021011 0.0093686 0.0091546 -0.055399 -0.15566 -0.022953 0.059742 -0.16019 0.089876 0.22911 0.012888 -0.0064877 0.21814 -0.078825 -0.043335 -0.17117 0.14388 0.1966 0.033799 0.014122 0.00011886 -0.21063 -0.19768 -0.029763 -0.19804 -0.021815 0.10616 0.040291 0.16439 0.10453 -0.051641 -0.020664 0.090355 0.068664 0.091972 0.19312 -0.020139 0.039835 -0.030826 -0.057954 0.067909 0.015659 -0.0059393 -0.0749 -0.038427 0.012352 -0.19662 0.017777 0.054902 0.11253 -0.15572 -0.14532 -0.056547 0.074229 0.20439 0.063292 -0.0050176 -0.019931 0.20266 0.0089804 -0.14802 0.059892 -0.16034 0.044219 0.028951 -0.049691 0.1643 0.09291 -0.097992 0.027463 0.065212 -0.03697 0.1632 0.068514 0.11781 -0.15324 -0.073086 -0.070403 -0.0016561 0.01838 -0.1083 0.062468 -0.054548 -0.038575 -0.054889 0.018902 -0.0012329 
mày 0.11807 -0.31003 -0.20425 0.21038 -0.10798 0.011218 -0.39378 -0.097188 0.3382 -0.075148 0.045343 0.070522 0.17087 -0.033024 0.017851 0.013802 -0.084557 -0.23346 -0.03311 0.091745 -0.23445 0.12791 0.34196 0.018347 -0.014953 0.31663 -0.11603 -0.052833 -0.24756 0.2045 0.28854 0.052427 0.02198 0.00030569 -0.30889 -0.28832 -0.043548 -0.28397 -0.036294 0.15215 0.060457 0.24058 0.15056 -0.075187 -0.029867 0.1341 0.10178 0.13228 0.27945 -0.036275 0.063849 -0.046136 -0.089817 0.097872 0.025226 -0.011354 -0.11565 -0.057546 0.011301 -0.2896 0.022984 0.086017 0.16811 -0.22883 -0.21532 -0.088692 0.10956 0.30314 0.088019 -0.0062891 -0.03756 0.29984 0.0075123 -0.22458 0.087053 -0.23108 0.060957 0.037985 -0.072753 0.24024 0.13536 -0.13681 0.045502 0.093709 -0.060786 0.23975 0.094754 0.17167 -0.2181 -0.10676 -0.1066 -0.00088371 0.019734 -0.15516 0.089786 -0.076128 -0.05844 -0.085156 0.034301 -0.00819 
của 0.08285 -0.22102 -0.1469 0.15252 -0.080244 0.0098508 -0.27738 -0.067271 0.24143 -0.054992 0.032161 0.051291 0.11867 -0.023943 0.012939 0.0044665 -0.060774 -0.1652 -0.025421 0.064984 -0.16643 0.089448 0.24018 0.0149 -0.009498 0.22754 -0.080203 -0.037485 -0.1792 0.149 0.2052 0.031618 0.012723 0.0035367 -0.22059 -0.20431 -0.031021 -0.20098 -0.025133 0.10844 0.049063 0.17271 0.10879 -0.053221 -0.02191 0.093329 0.069892 0.098001 0.20218 -0.023717 0.043712 -0.034083 -0.062855 0.068803 0.020954 -0.010315 -0.079212 -0.043495 0.0046517 -0.20764 0.014849 0.058549 0.11792 -0.16158 -0.15446 -0.064739 0.078871 0.21781 0.061526 -0.0087974 -0.0258 0.21492 0.0072323 -0.1598 0.065525 -0.16456 0.042991 0.029042 -0.048026 0.17103 0.094944 -0.10301 0.038547 0.063304 -0.041481 0.1699 0.064423 0.12637 -0.16155 -0.075644 -0.071738 -0.0029979 0.014722 -0.11073 0.066273 -0.051016 -0.042084 -0.064286 0.021203 -0.0022725 
ạ? 0.057771 -0.1705 -0.11504 0.1124 -0.056966 0.0032447 -0.21428 -0.053827 0.18319 -0.04362 0.020939 0.038818 0.091247 -0.013422 0.012969 0.0053369 -0.04216 -0.12268 -0.020368 0.049963 -0.12739 0.073356 0.18086 0.010305 -0.005125 0.17125 -0.065915 -0.030787 -0.13404 0.11464 0.15854 0.034275 0.013878 -0.0014512 -0.16514 -0.15382 -0.021156 -0.15544 -0.015202 0.090709 0.032218 0.12674 0.086979 -0.040472 -0.020466 0.075938 0.050036 0.075637 0.15395 -0.016951 0.036111 -0.024776 -0.050721 0.052161 0.017991 -0.0053282 -0.064318 -0.028958 0.0074051 -0.16335 0.0069227 0.046503 0.087224 -0.12166 -0.11951 -0.047711 0.058325 0.16719 0.052878 -0.0090335 -0.022284 0.16911 0.0076299 -0.12116 0.045845 -0.12581 0.032963 0.019151 -0.040619 0.12808 0.072763 -0.077571 0.027949 0.05014 -0.028149 0.13038 0.055473 0.087917 -0.12314 -0.062719 -0.057171 -0.0016105 0.011203 -0.082384 0.054256 -0.040237 -0.026886 -0.045372 0.017261 -0.00057637 
nên 0.083841 -0.21996 -0.14682 0.15071 -0.07687 0.0030215 -0.27759 -0.064497 0.23875 -0.054379 0.027831 0.049509 0.11375 -0.017093 0.010383 0.0097014 -0.058075 -0.164 -0.026254 0.06279 -0.16311 0.0949 0.2388 0.010094 -0.0093022 0.22517 -0.076117 -0.035225 -0.17737 0.14553 0.20331 0.030795 0.012811 6.7989e-05 -0.21744 -0.2044 -0.028527 -0.1979 -0.020201 0.10827 0.043377 0.17096 0.10763 -0.053205 -0.024594 0.092556 0.072617 0.091323 0.20151 -0.021145 0.044063 -0.033681 -0.06079 0.066383 0.017022 -0.0093679 -0.084094 -0.041975 0.0093842 -0.20735 0.015253 0.058778 0.11834 -0.15797 -0.15176 -0.059538 0.079434 0.21219 0.065941 -0.0058523 -0.021799 0.21259 0.0063746 -0.15668 0.063999 -0.16453 0.047437 0.028282 -0.052011 0.17255 0.09799 -0.097665 0.030994 0.061522 -0.040452 0.16933 0.067726 0.12194 -0.15696 -0.077072 -0.076055 0.0012022 0.016058 -0.11119 0.064065 -0.054271 -0.037424 -0.058415 0.021191 -0.0052325 
điện 0.076302 -0.20975 -0.14145 0.13796 -0.070702 0.005788 -0.26129 -0.061411 0.22602 -0.050432 0.025276 0.048271 0.11085 -0.023162 0.0099071 0.0052151 -0.05826 -0.15412 -0.02279 0.05892 -0.15365 0.08488 0.22498 0.011637 -0.0059967 0.21587 -0.079814 -0.033642 -0.16936 0.13945 0.19556 0.033036 0.013456 -0.00092335 -0.20542 -0.19189 -0.028381 -0.18988 -0.019469 0.10053 0.042388 0.16033 0.098892 -0.052444 -0.017081 0.0883 0.067159 0.092361 0.18658 -0.019797 0.043456 -0.032126 -0.057393 0.063612 0.015915 -0.0077835 -0.076704 -0.036109 0.0076338 -0.19857 0.015044 0.058699 0.11076 -0.15321 -0.14322 -0.059202 0.073718 0.20449 0.063331 -0.0061338 -0.021811 0.20126 0.0074829 -0.14496 0.057469 -0.15549 0.042878 0.025049 -0.045351 0.15582 0.091571 -0.097024 0.031331 0.060662 -0.038003 0.15926 0.062853 0.11562 -0.14625 -0.070125 -0.068193 -0.0024772 0.012885 -0.10523 0.063695 -0.049364 -0.035717 -0.058869 0.026511 -0.0016588 
ai 0.077696 -0.19867 -0.13534 0.13467 -0.077015 0.0080877 -0.25543 -0.057216 0.21799 -0.047877 0.026027 0.046554 0.10986 -0.014437 0.012663 0.0065741 -0.053988 -0.15368 -0.01583 0.055228 -0.14933 0.084472 0.22127 0.01279 -0.0075444 0.20753 -0.073454 -0.030549 -0.16018 0.13655 0.18687 0.034505 0.016247 0.0027887 -0.19924 -0.18446 -0.02839 -0.18229 -0.024267 0.10083 0.037658 0.15554 0.093663 -0.047975 -0.025414 0.082509 0.072046 0.086976 0.18112 -0.01945 0.043218 -0.030358 -0.060895 0.063452 0.012631 -0.0090462 -0.0771 -0.041473 0.010748 -0.1877 0.015698 0.05084 0.10556 -0.15078 -0.14092 -0.057934 0.074089 0.1988 0.060414 -0.0034168 -0.02402 0.19548 0.0084071 -0.14266 0.060071 -0.15167 0.046325 0.024926 -0.047 0.14807 0.08428 -0.091615 0.031435 0.056776 -0.034667 0.15252 0.055168 0.10771 -0.14639 -0.069491 -0.062524 -0.0008 0.014875 -0.10321 0.054773 -0.0492 -0.031758 -0.05876 0.019658 -0.0030759 
phim 0.048547 -0.13143 -0.086847 0.089317 -0.047533 0.0014553 -0.1683 -0.038421 0.14319 -0.030895 0.01693 0.02886 0.072992 -0.014036 0.0056959 0.0043164 -0.036581 -0.094686 -0.014047 0.039454 -0.099564 0.054853 0.14476 0.011547 -0.0061416 0.13476 -0.049441 -0.020696 -0.1067 0.090144 0.12209 0.023176 0.0098494 0.0013296 -0.13235 -0.12388 -0.01945 -0.11988 -0.01726 0.06581 0.02659 0.10189 0.063484 -0.032404 -0.013711 0.055693 0.046652 0.053768 0.11974 -0.017662 0.03102 -0.017286 -0.035571 0.040136 0.0075479 -0.0018982 -0.049315 -0.025261 0.0032588 -0.12371 0.012066 0.034657 0.071647 -0.097276 -0.089856 -0.03969 0.048236 0.12781 0.037282 -0.0049099 -0.010552 0.12589 0.0027402 -0.091399 0.035567 -0.093126 0.027547 0.016375 -0.031121 0.098497 0.058715 -0.058243 0.02084 0.040452 -0.021107 0.10205 0.043386 0.069332 -0.093679 -0.046686 -0.045449 -0.00098225 0.010081 -0.066346 0.038176 -0.031188 -0.024115 -0.036221 0.014511 -0.00051678 
bạn 0.069524 -0.18464 -0.11442 0.12145 -0.0626 -0.00072703 -0.22459 -0.053218 0.19281 -0.048963 0.028283 0.042096 0.098488 -0.021367 0.010643 0.0031616 -0.049282 -0.13369 -0.02062 0.051646 -0.13443 0.076443 0.19398 0.011038 -0.0073188 0.1843 -0.064704 -0.032544 -0.14482 0.11853 0.17002 0.029393 0.012114 0.0015429 -0.17711 -0.16627 -0.027939 -0.16249 -0.018957 0.092766 0.033564 0.1393 0.085346 -0.04422 -0.018318 0.076817 0.059007 0.078171 0.16405 -0.017925 0.040737 -0.025602 -0.049768 0.055835 0.013568 -0.0093029 -0.066335 -0.032602 0.0077825 -0.17038 0.009708 0.047574 0.098662 -0.12795 -0.12208 -0.050483 0.06287 0.17451 0.056347 -0.0059209 -0.022169 0.1742 0.0039033 -0.12729 0.052793 -0.13245 0.032287 0.020312 -0.040647 0.13368 0.076899 -0.078625 0.026999 0.054049 -0.033148 0.1355 0.051976 0.099537 -0.12711 -0.064249 -0.06146 0.00049067 0.012096 -0.089089 0.056705 -0.042985 -0.030342 -0.047216 0.016827 -0.0034644 
anh 0.11047 -0.29731 -0.19878 0.20254 -0.10581 0.0075001 -0.37888 -0.096095 0.32462 -0.072571 0.04425 0.06924 0.15905 -0.026382 0.017509 0.012405 -0.0779 -0.22247 -0.035062 0.086583 -0.22363 0.12969 0.32715 0.018781 -0.011624 0.29946 -0.11419 -0.053515 -0.24439 0.19517 0.27803 0.054146 0.022112 0.0012787 -0.2988 -0.27361 -0.03979 -0.27372 -0.033202 0.15072 0.062522 0.23367 0.1488 -0.069463 -0.028028 0.12851 0.095697 0.12361 0.26664 -0.030587 0.067078 -0.049484 -0.079767 0.094599 0.02125 -0.0083848 -0.10861 -0.057994 0.010564 -0.28096 0.02515 0.078771 0.16066 -0.22249 -0.20859 -0.085662 0.10952 0.28964 0.08827 -0.012203 -0.034558 0.28484 0.0088044 -0.21494 0.084077 -0.22278 0.058468 0.036024 -0.072423 0.2243 0.12535 -0.13537 0.043672 0.08731 -0.053927 0.23017 0.091947 0.16456 -0.2137 -0.10598 -0.10028 -0.0021092 0.020537 -0.14648 0.088654 -0.069311 -0.05195 -0.080247 0.031812 -0.0078155 
mới 0.089755 -0.23184 -0.15363 0.15597 -0.084468 0.0070372 -0.29062 -0.070819 0.2487 -0.055205 0.033183 0.055903 0.12673 -0.025723 0.013851 0.011481 -0.061558 -0.17077 -0.02586 0.067452 -0.17309 0.094678 0.25294 0.012761 -0.010443 0.23762 -0.087378 -0.041576 -0.18713 0.15323 0.21664 0.037788 0.016287 0.0056304 -0.23025 -0.2167 -0.030357 -0.20864 -0.028697 0.11323 0.048268 0.17817 0.11378 -0.053926 -0.021253 0.10253 0.076433 0.099534 0.21083 -0.020675 0.04744 -0.034028 -0.062066 0.073894 0.020449 -0.0067639 -0.08824 -0.046441 0.011343 -0.21582 0.016739 0.061794 0.11962 -0.16988 -0.15603 -0.064979 0.080769 0.22825 0.067983 -0.0093742 -0.02313 0.22284 0.0072856 -0.16366 0.065341 -0.16824 0.051186 0.02875 -0.055845 0.17434 0.10414 -0.10774 0.037223 0.067115 -0.043437 0.17689 0.071246 0.12906 -0.16477 -0.079721 -0.074943 0.0012838 0.015138 -0.11769 0.069405 -0.053883 -0.040025 -0.062289 0.027813 -0.0063247 
Bao 0.10553 -0.27981 -0.18266 0.18556 -0.09727 0.010418 -0.35279 -0.087959 0.30087 -0.06501 0.039178 0.06403 0.14905 -0.026488 0.01546 0.010434 -0.069574 -0.20239 -0.026178 0.08264 -0.20829 0.1163 0.30376 0.01938 -0.011502 0.28355 -0.10246 -0.045217 -0.22704 0.18322 0.25753 0.046358 0.020631 0.0057359 -0.27236 -0.25121 -0.04193 -0.25038 -0.028761 0.13698 0.055997 0.21754 0.13026 -0.070106 -0.026066 0.11563 0.091475 0.11927 0.25177 -0.030269 0.058733 -0.040785 -0.073725 0.08486 0.022044 -0.0094144 -0.10082 -0.05535 0.00803 -0.25857 0.017182 0.077257 0.14988 -0.20129 -0.19663 -0.081168 0.10077 0.27067 0.083845 -0.0090182 -0.031194 0.26883 0.01009 -0.19847 0.075226 -0.20542 0.055516 0.036694 -0.065651 0.21209 0.1184 -0.12733 0.042717 0.083623 -0.050071 0.21308 0.082694 0.1486 -0.20251 -0.097876 -0.08822 0.00018948 0.017206 -0.14091 0.081616 -0.065816 -0.047804 -0.075804 0.028505 -0.0033992 
biết 0.079078 -0.21219 -0.14102 0.14833 -0.073946 0.0096893 -0.27099 -0.065303 0.2319 -0.051768 0.027546 0.050274 0.1178 -0.021187 0.016528 0.0055692 -0.057973 -0.15868 -0.022484 0.06253 -0.16019 0.087504 0.23311 0.013393 -0.0082115 0.2138 -0.078441 -0.037567 -0.17292 0.14286 0.1953 0.037165 0.018124 0.00058052 -0.20888 -0.19824 -0.028266 -0.19288 -0.024892 0.10672 0.043063 0.16834 0.10261 -0.050244 -0.020209 0.089711 0.069351 0.089279 0.19172 -0.020298 0.046059 -0.029821 -0.05886 0.067419 0.014104 -0.010804 -0.077103 -0.04139 0.0068219 -0.20116 0.013571 0.055388 0.11618 -0.15612 -0.1501 -0.062117 0.075612 0.20527 0.060739 -0.007232 -0.023683 0.20641 0.0069097 -0.15427 0.058223 -0.16034 0.039437 0.027353 -0.049822 0.16302 0.09375 -0.098907 0.033236 0.061546 -0.039124 0.16509 0.067301 0.11664 -0.15197 -0.073863 -0.069226 0.00046608 0.016599 -0.10771 0.062835 -0.051069 -0.039819 -0.058503 0.018038 -0.0018262 
để 0.071614 -0.19375 -0.13091 0.13343 -0.069757 0.006323 -0.24339 -0.062471 0.20876 -0.049461 0.024899 0.041034 0.10678 -0.014571 0.010031 0.0068271 -0.051147 -0.14201 -0.018525 0.058788 -0.1438 0.082313 0.21112 0.011754 -0.01243 0.19675 -0.074296 -0.035781 -0.15257 0.12624 0.18257 0.030138 0.019973 0.0011416 -0.19709 -0.17932 -0.024546 -0.17868 -0.022525 0.098965 0.040637 0.15222 0.089981 -0.04826 -0.016175 0.08597 0.064927 0.076306 0.17608 -0.020412 0.044901 -0.026345 -0.056753 0.059495 0.018505 -0.0033187 -0.073054 -0.037281 0.0081618 -0.18518 0.015022 0.051516 0.10418 -0.13854 -0.1351 -0.053962 0.073061 0.19036 0.058053 -0.002642 -0.022845 0.18886 0.008038 -0.13684 0.051135 -0.14354 0.039148 0.022237 -0.042165 0.15194 0.081912 -0.088482 0.03005 0.057108 -0.032244 0.15057 0.064284 0.10535 -0.13968 -0.069148 -0.059301 -0.0025832 0.012489 -0.10096 0.058899 -0.046244 -0.03553 -0.052155 0.017808 -0.0045176 
thoại 0.096511 -0.25163 -0.16691 0.16992 -0.086611 0.0086024 -0.31891 -0.078488 0.27122 -0.059909 0.034462 0.054623 0.13849 -0.022535 0.014234 0.011431 -0.069847 -0.18872 -0.026727 0.069861 -0.18629 0.10602 0.27515 0.016253 -0.012279 0.25934 -0.093057 -0.044044 -0.20282 0.16771 0.23163 0.044237 0.017446 0.0022016 -0.25287 -0.23076 -0.034354 -0.23171 -0.028952 0.12418 0.050286 0.19532 0.12665 -0.061224 -0.022174 0.10668 0.0817 0.10673 0.22896 -0.026754 0.050328 -0.034952 -0.068554 0.077743 0.02073 -0.010377 -0.092197 -0.050879 0.011917 -0.23545 0.019712 0.065504 0.13338 -0.1836 -0.1756 -0.071388 0.09092 0.24238 0.074105 -0.0076003 -0.030899 0.239 0.0079988 -0.17685 0.067576 -0.18657 0.051179 0.027666 -0.057151 0.1903 0.108 -0.1123 0.039323 0.074614 -0.045022 0.19357 0.07448 0.13637 -0.18307 -0.088877 -0.085495 -0.001667 0.019637 -0.12535 0.074594 -0.059228 -0.04419 -0.066014 0.020708 -0.0044335 
máy 0.045061 -0.12541 -0.084768 0.087448 -0.045672 0.0013997 -0.16156 -0.040409 0.13851 -0.037274 0.014826 0.028295 0.070043 -0.012526 0.0060352 0.0015891 -0.032137 -0.091508 -0.013208 0.03882 -0.095606 0.050347 0.14027 0.006081 -0.0059045 0.13214 -0.050717 -0.020722 -0.10025 0.086009 0.1191 0.023408 0.0091216 -0.0047228 -0.12908 -0.12159 -0.021908 -0.11376 -0.016301 0.060084 0.027843 0.097463 0.065518 -0.031901 -0.012702 0.051706 0.045225 0.052628 0.11273 -0.013172 0.025946 -0.020315 -0.038969 0.039106 0.010259 -0.0086611 -0.046344 -0.027202 0.0020928 -0.12104 0.0078723 0.032737 0.068595 -0.095664 -0.086325 -0.038623 0.046316 0.12529 0.037292 -0.0096844 -0.016862 0.12382 0.0036379 -0.092739 0.035405 -0.092112 0.026741 0.014323 -0.031279 0.10091 0.057554 -0.056992 0.024381 0.03937 -0.022874 0.099145 0.040566 0.070992 -0.091162 -0.044888 -0.044426 -0.0022138 0.013212 -0.06518 0.034141 -0.027045 -0.022069 -0.035362 0.013584 -0.0038914 
dài 0.081816 -0.22709 -0.14846 0.15399 -0.078735 0.005866 -0.28485 -0.06814 0.24129 -0.050705 0.03427 0.049401 0.12074 -0.027606 0.013551 0.0072019 -0.060959 -0.16912 -0.024697 0.066273 -0.16594 0.094046 0.24412 0.01097 -0.012943 0.23004 -0.085448 -0.039608 -0.18437 0.15246 0.20819 0.035367 0.014686 0.0017369 -0.22895 -0.20578 -0.027331 -0.20634 -0.02247 0.10968 0.044856 0.17861 0.10801 -0.051831 -0.024127 0.091442 0.074385 0.096236 0.20601 -0.024157 0.048242 -0.030432 -0.062642 0.068362 0.016416 -0.0044914 -0.083404 -0.045712 0.0058248 -0.2122 0.015205 0.060128 0.11965 -0.16237 -0.15545 -0.067974 0.083088 0.22013 0.06657 -0.0094652 -0.023372 0.21727 0.009555 -0.15802 0.063269 -0.1675 0.045463 0.02895 -0.051719 0.17119 0.098505 -0.10198 0.035992 0.069282 -0.04246 0.17038 0.066916 0.12421 -0.16686 -0.077985 -0.076353 -0.00080334 0.014393 -0.11404 0.069356 -0.049521 -0.038436 -0.063338 0.025231 -0.0043611 
sĩ 0.050709 -0.14075 -0.092609 0.091544 -0.05064 0.0033896 -0.17944 -0.040362 0.15233 -0.038323 0.021993 0.030155 0.080799 -0.013099 0.0074984 -0.0036807 -0.036614 -0.11017 -0.015161 0.041955 -0.097733 0.054798 0.15115 0.010628 -0.00011131 0.14657 -0.056658 -0.023411 -0.11322 0.096782 0.13414 0.021045 0.0070249 0.0047535 -0.14385 -0.12754 -0.020425 -0.12661 -0.012509 0.071506 0.024522 0.10672 0.069994 -0.034533 -0.016242 0.057003 0.044094 0.061455 0.12039 -0.012864 0.028606 -0.023807 -0.040889 0.045531 0.014193 -0.0055308 -0.054612 -0.028142 0.0037866 -0.13312 0.0092528 0.045526 0.074325 -0.1037 -0.096312 -0.044898 0.055158 0.13171 0.041373 -0.0094458 -0.017155 0.13652 0.0042589 -0.10203 0.041637 -0.098199 0.031929 0.014594 -0.032218 0.11332 0.058812 -0.063362 0.022297 0.039636 -0.025235 0.10544 0.04521 0.0753 -0.099699 -0.052046 -0.04695 -0.0030516 0.016091 -0.067475 0.03847 -0.029843 -0.028672 -0.038649 0.014572 -0.00054272 
nhất 0.09526 -0.25237 -0.16607 0.1691 -0.089716 0.0055234 -0.32229 -0.076527 0.27443 -0.063351 0.036318 0.058082 0.13759 -0.025076 0.012548 0.010534 -0.068324 -0.18474 -0.027081 0.074682 -0.18787 0.10877 0.27656 0.017839 -0.010476 0.25695 -0.095775 -0.043835 -0.2076 0.17056 0.23708 0.040507 0.013666 -0.0015636 -0.25449 -0.2318 -0.030593 -0.23196 -0.027726 0.12616 0.048258 0.19804 0.12636 -0.064315 -0.023181 0.10586 0.081667 0.11037 0.22888 -0.023273 0.055355 -0.039298 -0.068495 0.0774 0.020356 -0.0099251 -0.093622 -0.047389 0.0097446 -0.23691 0.018274 0.067345 0.13658 -0.1891 -0.17344 -0.074665 0.088446 0.24472 0.072667 -0.010881 -0.026401 0.24216 0.0047698 -0.18365 0.069891 -0.1879 0.0485 0.030219 -0.057208 0.19431 0.10907 -0.11158 0.03747 0.076037 -0.046221 0.19593 0.080454 0.13796 -0.1778 -0.088458 -0.081461 -0.0016393 0.016012 -0.12669 0.074584 -0.062287 -0.044513 -0.06735 0.024009 -0.0025531 
yêu 0.065728 -0.17584 -0.10953 0.11187 -0.057403 0.0066382 -0.21563 -0.051082 0.18748 -0.041841 0.024014 0.039652 0.08971 -0.015773 0.010695 0.0065702 -0.045177 -0.12902 -0.021027 0.047966 -0.12726 0.071406 0.18586 0.0091202 -0.010821 0.17397 -0.061304 -0.027499 -0.13542 0.11336 0.16023 0.027822 0.01438 0.0015114 -0.16884 -0.15625 -0.023394 -0.1601 -0.020239 0.087738 0.030222 0.13406 0.081964 -0.038374 -0.01193 0.071774 0.054581 0.071706 0.1521 -0.019265 0.037743 -0.026308 -0.045503 0.047997 0.019226 -0.0067196 -0.061721 -0.030849 0.0068725 -0.15894 0.01237 0.045587 0.09122 -0.12504 -0.1168 -0.047335 0.060847 0.16326 0.049263 -0.0063737 -0.015729 0.16198 0.0024448 -0.11866 0.048748 -0.12391 0.033422 0.021001 -0.039068 0.1303 0.068882 -0.07755 0.024449 0.051459 -0.032999 0.13092 0.0502 0.094657 -0.12186 -0.059153 -0.051954 -7.8518e-05 0.0080228 -0.083638 0.04915 -0.041631 -0.033867 -0.049662 0.018932 -0.0042104 
đẹp 0.059406 -0.15636 -0.10422 0.10452 -0.056783 0.0045299 -0.1967 -0.044846 0.1699 -0.037726 0.016756 0.036433 0.087171 -0.019847 0.0079313 0.0035877 -0.04101 -0.11922 -0.016321 0.047555 -0.11623 0.065391 0.17184 0.0079154 -0.010026 0.16011 -0.054601 -0.027511 -0.12754 0.10598 0.15103 0.026821 0.010387 0.0025871 -0.16194 -0.14362 -0.020535 -0.14576 -0.020875 0.078076 0.030447 0.12034 0.073103 -0.039895 -0.014501 0.068364 0.054132 0.066202 0.14172 -0.017436 0.03298 -0.023506 -0.044485 0.048348 0.012946 -0.009966 -0.057123 -0.027924 0.0051814 -0.14755 0.011743 0.040584 0.083495 -0.11966 -0.10826 -0.041926 0.058088 0.1546 0.043873 -0.0078449 -0.018771 0.1479 0.0041612 -0.11007 0.042783 -0.11576 0.03187 0.021173 -0.036284 0.1198 0.069502 -0.070809 0.021633 0.046691 -0.028013 0.12246 0.05156 0.088562 -0.11454 -0.0582 -0.054922 -0.0033176 0.0086813 -0.076701 0.049825 -0.036668 -0.030142 -0.048444 0.015111 -0.00081078 
nhạc 0.088007 -0.23159 -0.15303 0.15881 -0.079803 0.0065112 -0.2942 -0.069182 0.2512 -0.058295 0.030083 0.053899 0.12555 -0.023442 0.010208 0.0066175 -0.060498 -0.16748 -0.028316 0.064608 -0.17122 0.096732 0.25661 0.014745 -0.007293 0.23972 -0.083061 -0.043364 -0.19026 0.15819 0.21652 0.038789 0.01552 -0.0016547 -0.23231 -0.21404 -0.030941 -0.21241 -0.026511 0.11596 0.047449 0.18095 0.11512 -0.058947 -0.021783 0.097692 0.078346 0.09841 0.21025 -0.024203 0.047005 -0.032922 -0.063603 0.072875 0.016849 -0.010924 -0.084666 -0.044988 0.0081318 -0.22088 0.015765 0.061958 0.12544 -0.16996 -0.16141 -0.060645 0.085178 0.22405 0.067748 -0.0059782 -0.02331 0.22112 0.0045287 -0.16306 0.066823 -0.16867 0.045867 0.025873 -0.051802 0.17863 0.10038 -0.10205 0.035431 0.067761 -0.041611 0.17715 0.074653 0.13098 -0.16629 -0.082094 -0.075509 -0.0018807 0.013083 -0.11722 0.069745 -0.052954 -0.039207 -0.062418 0.024286 -0.0018665 
mấy 0.073615 -0.19534 -0.12644 0.13435 -0.062727 0.0055547 -0.24539 -0.059329 0.20567 -0.047772 0.027165 0.045269 0.1076 -0.016498 0.013927 0.0052377 -0.051585 -0.13995 -0.020346 0.05346 -0.14306 0.080896 0.21245 0.010489 -0.0078996 0.19256 -0.074115 -0.031144 -0.15429 0.12605 0.18123 0.032936 0.014304 -0.00041119 -0.18877 -0.17779 -0.024947 -0.17434 -0.023088 0.09845 0.04037 0.1526 0.09235 -0.050084 -0.018409 0.081164 0.06336 0.077895 0.17348 -0.01641 0.039788 -0.027321 -0.052658 0.061206 0.018565 -0.011753 -0.070689 -0.036637 0.0055049 -0.18171 0.016212 0.048485 0.10177 -0.14607 -0.13203 -0.052518 0.06983 0.18874 0.054915 -0.0070811 -0.021032 0.18695 0.0027738 -0.13332 0.058804 -0.14406 0.038624 0.023849 -0.042304 0.1494 0.082464 -0.087115 0.030313 0.057152 -0.036051 0.14403 0.055856 0.10708 -0.13853 -0.064213 -0.061667 -0.005623 0.011119 -0.096948 0.055691 -0.044193 -0.033553 -0.054011 0.017333 -0.002723 
sống 0.10711 -0.28007 -0.18243 0.18914 -0.098832 0.0084993 -0.35302 -0.088774 0.3036 -0.069404 0.039542 0.06261 0.15379 -0.025568 0.017984 0.011082 -0.072502 -0.20883 -0.030018 0.077299 -0.20567 0.11736 0.30387 0.017191 -0.014818 0.28267 -0.10426 -0.051123 -0.22689 0.18682 0.26098 0.048624 0.019708 0.0018458 -0.27964 -0.25774 -0.042127 -0.25616 -0.030333 0.14233 0.055868 0.21535 0.13799 -0.070882 -0.027116 0.11404 0.090731 0.12095 0.25097 -0.028577 0.061417 -0.039672 -0.078884 0.086107 0.020535 -0.010491 -0.099876 -0.055752 0.012923 -0.26217 0.022265 0.075338 0.14902 -0.20309 -0.19503 -0.078209 0.099929 0.27136 0.079467 -0.0093255 -0.028373 0.26848 0.009463 -0.19941 0.077328 -0.20727 0.059857 0.034421 -0.066486 0.211 0.11911 -0.12666 0.041318 0.085348 -0.051092 0.21194 0.083744 0.15778 -0.20107 -0.093776 -0.096635 8.5833e-05 0.015772 -0.13994 0.08588 -0.062989 -0.051213 -0.07613 0.028698 -0.0054615 
tính 0.069215 -0.17805 -0.12043 0.12149 -0.061713 0.0044598 -0.22789 -0.053841 0.19979 -0.043912 0.025653 0.041869 0.097416 -0.016024 0.010733 0.0031145 -0.048006 -0.13038 -0.024963 0.049006 -0.13214 0.074056 0.19633 0.010695 -0.0089854 0.18409 -0.068309 -0.031351 -0.1441 0.11785 0.16477 0.031508 0.01211 0.00084229 -0.17584 -0.1672 -0.026271 -0.16741 -0.017499 0.088737 0.032548 0.14051 0.086354 -0.047078 -0.014294 0.07689 0.060348 0.077662 0.16186 -0.018064 0.041264 -0.028337 -0.051948 0.055619 0.016646 -0.0067862 -0.067138 -0.035245 0.0050066 -0.16986 0.015193 0.050772 0.095692 -0.12917 -0.12481 -0.051721 0.065837 0.17122 0.05639 -0.0044967 -0.021689 0.17522 0.0066758 -0.1276 0.051225 -0.13298 0.038033 0.023838 -0.041641 0.13404 0.077873 -0.081903 0.02407 0.054061 -0.034073 0.14054 0.055801 0.099281 -0.13342 -0.063539 -0.057469 -0.0007226 0.0080261 -0.094775 0.054207 -0.043879 -0.029203 -0.046057 0.017851 -5.6763e-05 
kéo 0.068987 -0.18016 -0.11356 0.12059 -0.066703 0.0059854 -0.23282 -0.052995 0.19254 -0.04526 0.022495 0.038621 0.098014 -0.017796 0.012319 0.0053179 -0.047489 -0.13405 -0.022465 0.054032 -0.13677 0.075576 0.19418 0.010222 -0.006719 0.17943 -0.065154 -0.034759 -0.14802 0.12092 0.167 0.030319 0.0077187 0.0025954 -0.18066 -0.16632 -0.021091 -0.16528 -0.016121 0.085582 0.036977 0.13834 0.088968 -0.045722 -0.017402 0.07879 0.057413 0.080867 0.16342 -0.016864 0.037545 -0.026384 -0.047974 0.052977 0.016237 -0.010445 -0.066185 -0.035394 0.0075129 -0.16797 0.01309 0.050445 0.093328 -0.13447 -0.12236 -0.05551 0.061725 0.17495 0.053446 -0.0043232 -0.016944 0.17631 0.0041397 -0.1299 0.051151 -0.13807 0.032126 0.02409 -0.041795 0.13523 0.07679 -0.080369 0.027438 0.051483 -0.033691 0.14157 0.051589 0.099534 -0.13208 -0.063234 -0.058839 0.0015936 0.011671 -0.091489 0.050241 -0.041977 -0.031526 -0.048833 0.018167 0.0007015 
khô 0.063271 -0.1718 -0.11279 0.11731 -0.06138 0.0084566 -0.21329 -0.053311 0.18836 -0.043028 0.021844 0.037577 0.090832 -0.01583 0.0089271 0.0053315 -0.046759 -0.13191 -0.022523 0.048257 -0.12575 0.068163 0.18341 0.010512 -0.0079735 0.17572 -0.065507 -0.03382 -0.13977 0.11178 0.15759 0.027734 0.010905 -0.00038635 -0.16809 -0.15806 -0.029162 -0.15796 -0.014821 0.085109 0.035842 0.13115 0.085394 -0.037167 -0.015424 0.070875 0.058943 0.074107 0.15728 -0.019828 0.035305 -0.024103 -0.048643 0.057173 0.013852 -0.0040114 -0.06775 -0.030015 0.0013537 -0.15802 0.012093 0.044277 0.090744 -0.1239 -0.11759 -0.050798 0.065911 0.16374 0.048954 -0.0036076 -0.018397 0.16203 0.0060751 -0.12062 0.045306 -0.1265 0.037015 0.023118 -0.038685 0.13106 0.074862 -0.076378 0.023167 0.05591 -0.030676 0.13458 0.052438 0.093204 -0.1246 -0.056887 -0.053742 -0.0025493 0.011473 -0.08805 0.048907 -0.043904 -0.028182 -0.046134 0.017882 -0.0041938 
hanh 0.075647 -0.19926 -0.13062 0.13671 -0.066422 0.0043961 -0.2523 -0.065001 0.21877 -0.047085 0.02752 0.04602 0.10905 -0.02005 0.013529 0.0095095 -0.050455 -0.14981 -0.022508 0.055755 -0.148 0.085199 0.21797 0.0098448 -0.0077071 0.20416 -0.076922 -0.034578 -0.16238 0.13258 0.18939 0.038122 0.013881 0.0024638 -0.19979 -0.18241 -0.029416 -0.18394 -0.019643 0.098929 0.040328 0.15812 0.09892 -0.048117 -0.021711 0.0849 0.064365 0.084563 0.17797 -0.02087 0.045808 -0.032079 -0.055907 0.063172 0.017124 -0.0088046 -0.075931 -0.039003 0.008485 -0.19126 0.015944 0.055061 0.11048 -0.14706 -0.14159 -0.056778 0.073087 0.19592 0.058756 -0.0067383 -0.020732 0.19117 0.0038187 -0.14634 0.052981 -0.14751 0.041325 0.024064 -0.047638 0.15281 0.085019 -0.091746 0.030053 0.061282 -0.035104 0.15742 0.065819 0.11197 -0.14485 -0.071506 -0.06639 0.00027278 0.011023 -0.10018 0.058784 -0.047677 -0.0358 -0.055059 0.021093 -0.0061244 
rồi 0.073683 -0.19058 -0.12419 0.12859 -0.067073 0.0031764 -0.24426 -0.059842 0.20755 -0.050121 0.025362 0.043676 0.10437 -0.01748 0.011772 0.0064467 -0.051983 -0.14643 -0.023849 0.060331 -0.13955 0.083662 0.20818 0.011861 -0.0083123 0.19597 -0.069581 -0.033054 -0.15589 0.12619 0.18077 0.026844 0.012266 0.00052449 -0.19122 -0.17681 -0.025109 -0.17581 -0.021071 0.095893 0.041449 0.14993 0.094836 -0.046745 -0.015898 0.081972 0.061614 0.077824 0.17412 -0.015552 0.038666 -0.029299 -0.052618 0.06031 0.013625 -0.0064931 -0.069922 -0.034813 0.0093044 -0.18077 0.010103 0.050458 0.10359 -0.13845 -0.13228 -0.055086 0.069557 0.18589 0.05621 -0.0051841 -0.02127 0.18687 0.00591 -0.13606 0.053933 -0.13702 0.041017 0.02435 -0.044864 0.1455 0.082166 -0.088823 0.031253 0.056266 -0.037899 0.14712 0.054361 0.10478 -0.13597 -0.063683 -0.062327 9.4188e-05 0.01417 -0.096318 0.053968 -0.047724 -0.035115 -0.050231 0.01982 -0.0047094 
thông 0.16523 -0.43228 -0.28629 0.29062 -0.15597 0.014564 -0.54976 -0.13525 0.47372 -0.10822 0.057525 0.097783 0.23722 -0.041118 0.028019 0.012964 -0.11626 -0.32462 -0.049636 0.12574 -0.3219 0.18206 0.47332 0.028434 -0.019992 0.44214 -0.16253 -0.078023 -0.3535 0.28747 0.40226 0.074156 0.030578 0.0019081 -0.43223 -0.40036 -0.058626 -0.3937 -0.048292 0.22016 0.083762 0.3388 0.21293 -0.10402 -0.037095 0.1834 0.13941 0.1853 0.39284 -0.048471 0.089086 -0.065506 -0.11818 0.13612 0.033051 -0.015032 -0.16021 -0.084794 0.019788 -0.41241 0.032122 0.11184 0.23284 -0.31853 -0.29961 -0.1247 0.15751 0.42109 0.12749 -0.015873 -0.049754 0.41704 0.01812 -0.30829 0.12395 -0.32127 0.088175 0.052186 -0.10139 0.3307 0.18917 -0.19463 0.066278 0.12995 -0.08018 0.33272 0.13269 0.24188 -0.31053 -0.14858 -0.14609 -0.0029389 0.025656 -0.21891 0.1272 -0.10356 -0.075682 -0.11734 0.042863 -0.0079723 
hay 0.06716 -0.17797 -0.1146 0.12174 -0.057684 0.0058255 -0.22388 -0.0551 0.19096 -0.039135 0.022282 0.039463 0.096781 -0.014866 0.012145 0.0027023 -0.046949 -0.13256 -0.014858 0.045228 -0.1323 0.0692 0.19092 0.010282 -0.0046234 0.17835 -0.066591 -0.02935 -0.14328 0.1144 0.16039 0.028673 0.012134 0.0038563 -0.17666 -0.15937 -0.025299 -0.16219 -0.021227 0.088496 0.034682 0.13297 0.083254 -0.036739 -0.016133 0.072868 0.059022 0.073324 0.15407 -0.016342 0.040089 -0.031506 -0.048487 0.054065 0.010485 -0.0073873 -0.062657 -0.033063 0.0068839 -0.1693 0.013926 0.046618 0.095587 -0.12868 -0.11801 -0.048816 0.064229 0.17201 0.0506 -0.0035816 -0.016793 0.17185 0.0028364 -0.12824 0.049821 -0.13185 0.037258 0.020298 -0.043811 0.13325 0.075553 -0.084011 0.029979 0.051389 -0.031316 0.13888 0.053598 0.1001 -0.13039 -0.059067 -0.055151 -0.00091316 0.011787 -0.085072 0.051527 -0.043216 -0.033711 -0.05134 0.018177 -0.00019422 
mạnh 0.090083 -0.23776 -0.16017 0.16379 -0.082115 0.0054171 -0.29985 -0.07115 0.26092 -0.052948 0.032566 0.053531 0.12773 -0.021249 0.014819 0.0080004 -0.061855 -0.17627 -0.025742 0.068112 -0.18008 0.098154 0.26038 0.014438 -0.011097 0.23822 -0.088901 -0.044188 -0.19311 0.15521 0.22187 0.038934 0.015706 0.003682 -0.2354 -0.21731 -0.034743 -0.21822 -0.024078 0.11954 0.047805 0.18552 0.11655 -0.060433 -0.0242 0.099401 0.077135 0.10074 0.21132 -0.026291 0.049885 -0.03618 -0.067553 0.075915 0.022083 -0.007933 -0.085263 -0.046647 0.0089124 -0.22282 0.017132 0.062333 0.12823 -0.17461 -0.16506 -0.068941 0.087823 0.23163 0.066977 -0.0089802 -0.025291 0.22713 0.0076279 -0.16733 0.064582 -0.17477 0.048923 0.026632 -0.05722 0.18115 0.10474 -0.11038 0.037115 0.072147 -0.042507 0.18181 0.074227 0.13043 -0.17189 -0.082031 -0.077577 -0.00079196 0.015052 -0.1203 0.069378 -0.058365 -0.039647 -0.062105 0.025189 -0.0046718 
mà 0.10669 -0.28397 -0.1858 0.19659 -0.099066 0.0093144 -0.35918 -0.09315 0.31053 -0.068752 0.037665 0.062686 0.15135 -0.029199 0.01391 0.013549 -0.077965 -0.21212 -0.034181 0.078567 -0.21068 0.12315 0.30974 0.015416 -0.018552 0.28604 -0.10923 -0.05 -0.2281 0.18731 0.26546 0.03769 0.021295 0.0012608 -0.282 -0.25852 -0.040493 -0.26137 -0.027555 0.13811 0.058365 0.21724 0.13829 -0.06968 -0.031565 0.12526 0.092116 0.1199 0.25705 -0.025388 0.062891 -0.044231 -0.086544 0.093468 0.017472 -0.0084971 -0.10873 -0.053649 0.0088649 -0.26477 0.022371 0.077415 0.15492 -0.20968 -0.19567 -0.078166 0.10282 0.27798 0.084195 -0.010264 -0.034328 0.27094 0.0063559 -0.20006 0.083716 -0.20665 0.05652 0.0356 -0.068985 0.22112 0.11722 -0.12769 0.041586 0.079113 -0.057184 0.21972 0.089771 0.15212 -0.20117 -0.096317 -0.09447 -0.0016515 0.017785 -0.13755 0.083038 -0.064664 -0.053061 -0.077971 0.031313 -0.0026114 
nhiêu 0.1028 -0.26774 -0.17296 0.18044 -0.093193 0.0090858 -0.33563 -0.082066 0.28909 -0.06515 0.037813 0.061625 0.14018 -0.02868 0.014258 0.0088169 -0.074304 -0.1951 -0.031048 0.075333 -0.19553 0.10937 0.28598 0.016142 -0.012783 0.27055 -0.098293 -0.044645 -0.21646 0.17746 0.25002 0.042092 0.01875 0.00080863 -0.2652 -0.24467 -0.036036 -0.24177 -0.030476 0.13164 0.053617 0.20442 0.1306 -0.065042 -0.02678 0.11106 0.085664 0.11242 0.24296 -0.026682 0.057055 -0.041595 -0.072339 0.082343 0.024539 -0.010499 -0.098651 -0.051074 0.010396 -0.25042 0.019992 0.069084 0.14053 -0.19275 -0.1834 -0.071336 0.094024 0.25602 0.078106 -0.0083313 -0.027983 0.25505 0.0061298 -0.18799 0.074205 -0.19616 0.054576 0.030097 -0.060584 0.20439 0.11411 -0.12422 0.042141 0.075712 -0.050575 0.20469 0.085458 0.14659 -0.18855 -0.09539 -0.090331 -0.0010896 0.016032 -0.13407 0.080519 -0.061526 -0.048445 -0.07276 0.026879 -0.0023943 
đêm 0.066577 -0.18346 -0.12185 0.12423 -0.063733 0.0046764 -0.23104 -0.055024 0.19876 -0.045694 0.024715 0.041486 0.10079 -0.021827 0.004362 0.0082118 -0.04679 -0.13678 -0.021 0.053478 -0.13925 0.081083 0.19967 0.012168 -0.0068449 0.18723 -0.070191 -0.029981 -0.1481 0.12306 0.16772 0.032474 0.014564 0.00066205 -0.18174 -0.16689 -0.021713 -0.16696 -0.018413 0.094172 0.035878 0.14149 0.090057 -0.04714 -0.015238 0.077351 0.057662 0.079532 0.16418 -0.021043 0.038153 -0.028048 -0.051445 0.059412 0.019059 -0.013897 -0.063227 -0.033908 0.0085342 -0.17261 0.013541 0.046119 0.098713 -0.13797 -0.12721 -0.052459 0.064158 0.17596 0.059461 -0.0032577 -0.019257 0.17491 0.0013394 -0.12707 0.046984 -0.13564 0.039558 0.023534 -0.041358 0.13833 0.078312 -0.083932 0.028982 0.053644 -0.033135 0.1426 0.058053 0.09896 -0.1333 -0.062783 -0.059855 -0.0001223 0.010202 -0.092513 0.052911 -0.043149 -0.033597 -0.05041 0.017608 -0.0022192 
được 0.058034 -0.15385 -0.10582 0.1087 -0.054127 0.0046423 -0.19662 -0.047258 0.16824 -0.038049 0.020282 0.035549 0.082396 -0.014509 0.0099805 0.0080773 -0.042358 -0.11663 -0.021757 0.041796 -0.11698 0.065746 0.16831 0.0079445 -0.0044683 0.1608 -0.060297 -0.028489 -0.12514 0.10396 0.14554 0.026498 0.0097909 0.0008149 -0.15453 -0.14407 -0.020439 -0.14263 -0.015571 0.075683 0.031585 0.12021 0.071833 -0.036666 -0.013732 0.064477 0.04895 0.064147 0.14382 -0.014206 0.034741 -0.024531 -0.043621 0.047231 0.013273 -0.0048435 -0.057313 -0.028444 0.0048355 -0.14462 0.010701 0.042394 0.082533 -0.11642 -0.10702 -0.044316 0.056425 0.15134 0.045722 -0.0021768 -0.012934 0.15047 0.0079765 -0.10876 0.04638 -0.11626 0.032106 0.017814 -0.036053 0.11709 0.067727 -0.070581 0.023159 0.050872 -0.030267 0.11872 0.050124 0.087058 -0.112 -0.054182 -0.050408 -0.0017226 0.0089305 -0.082134 0.043968 -0.035393 -0.027075 -0.040278 0.013124 -0.0023108 
chất 0.078546 -0.20526 -0.13749 0.13931 -0.07485 0.0064867 -0.26077 -0.062571 0.22421 -0.050935 0.028029 0.047264 0.11402 -0.019369 0.012043 0.0062308 -0.053936 -0.15275 -0.021684 0.059608 -0.15549 0.086791 0.22717 0.011427 -0.0086528 0.20675 -0.076303 -0.035703 -0.16732 0.13719 0.19148 0.031768 0.014577 0.0002353 -0.20398 -0.18956 -0.028996 -0.18892 -0.019711 0.10108 0.041917 0.16252 0.10107 -0.051994 -0.018707 0.085728 0.068593 0.088519 0.18729 -0.020644 0.040897 -0.032822 -0.056368 0.06398 0.015562 -0.0066419 -0.07668 -0.041548 0.0063118 -0.19711 0.014792 0.056007 0.1122 -0.15218 -0.14302 -0.059401 0.075018 0.20055 0.061698 -0.0078971 -0.025041 0.19706 0.0034494 -0.14975 0.057494 -0.15496 0.040361 0.026894 -0.046324 0.15561 0.089314 -0.092459 0.032188 0.060567 -0.036263 0.16123 0.06435 0.11535 -0.14727 -0.073078 -0.0671 -0.00041109 0.013383 -0.10386 0.059729 -0.050137 -0.035597 -0.053393 0.018962 -0.0038915 
hát 0.04991 -0.13243 -0.089626 0.088091 -0.049456 0.003529 -0.17025 -0.042461 0.14621 -0.037049 0.020579 0.030735 0.072176 -0.010756 0.0062444 0.008277 -0.035559 -0.099981 -0.015513 0.036191 -0.098519 0.057965 0.1471 0.0074896 -0.0079587 0.13428 -0.049118 -0.026085 -0.11232 0.090903 0.12486 0.02303 0.0059574 -0.0013088 -0.13458 -0.11966 -0.019946 -0.1195 -0.011859 0.064016 0.026235 0.1053 0.069631 -0.032453 -0.013977 0.0536 0.039831 0.058556 0.12152 -0.019048 0.026673 -0.022473 -0.034347 0.044126 0.012132 -0.0030243 -0.050133 -0.02665 0.0066755 -0.12506 0.01447 0.034347 0.070176 -0.09847 -0.095623 -0.035316 0.052083 0.12823 0.038207 -0.0037673 -0.016482 0.13114 0.0023976 -0.097943 0.04316 -0.10242 0.0243 0.014775 -0.029482 0.10175 0.059555 -0.06121 0.020315 0.040127 -0.02649 0.10447 0.041744 0.070811 -0.095394 -0.047137 -0.046443 -0.002948 0.0098705 -0.068845 0.038704 -0.034256 -0.021751 -0.032081 0.014785 -0.002714 
Mày 0.081853 -0.21466 -0.13904 0.14954 -0.076105 0.0037991 -0.27539 -0.068356 0.2362 -0.052889 0.024287 0.050497 0.11869 -0.021237 0.013601 0.0075243 -0.054844 -0.16217 -0.021343 0.063371 -0.15692 0.090623 0.23165 0.015198 -0.0045483 0.22467 -0.082012 -0.035113 -0.17405 0.14397 0.19951 0.035439 0.014183 -0.00017234 -0.21745 -0.19713 -0.030093 -0.19717 -0.029181 0.10377 0.043174 0.16793 0.10294 -0.053496 -0.01985 0.092092 0.068694 0.086176 0.19246 -0.025736 0.041643 -0.030768 -0.059864 0.067088 0.020229 -0.0069634 -0.08008 -0.044821 0.008659 -0.1996 0.015883 0.05698 0.11797 -0.15397 -0.14993 -0.061399 0.076155 0.21018 0.064564 -0.0070234 -0.022924 0.20855 0.0078403 -0.15378 0.063433 -0.15879 0.043216 0.027093 -0.049117 0.16384 0.095967 -0.096559 0.033101 0.066492 -0.039789 0.16564 0.065235 0.11528 -0.15149 -0.074164 -0.074916 -0.0039986 0.01679 -0.10449 0.063132 -0.052054 -0.040853 -0.062345 0.022376 -0.0039218 
hết 0.07655 -0.19438 -0.13071 0.13511 -0.064279 0.0057877 -0.24806 -0.061022 0.21267 -0.048483 0.02106 0.041825 0.11032 -0.016542 0.011737 0.0051945 -0.051891 -0.14536 -0.020726 0.054468 -0.14511 0.084945 0.21539 0.0072138 -0.0087418 0.19868 -0.070785 -0.032039 -0.15531 0.13172 0.18257 0.033085 0.016304 0.0028657 -0.19423 -0.17569 -0.025307 -0.17691 -0.023304 0.095754 0.039078 0.15327 0.093931 -0.047429 -0.021214 0.087273 0.066774 0.079938 0.17742 -0.018772 0.038278 -0.030118 -0.057463 0.067268 0.017072 -0.005828 -0.067461 -0.03715 0.013429 -0.18164 0.014717 0.05358 0.10782 -0.14463 -0.13399 -0.055872 0.072967 0.19134 0.061281 -0.0028702 -0.02089 0.18763 0.0085799 -0.13506 0.0561 -0.14711 0.039987 0.025997 -0.046855 0.15407 0.085293 -0.089897 0.033288 0.05307 -0.034014 0.14705 0.062063 0.10499 -0.14229 -0.066698 -0.066767 -5.7152e-05 0.014129 -0.10101 0.057408 -0.048434 -0.0352 -0.052762 0.019339 -0.0017464 
